<?xml version="1.0"?>
<MethodSetup Method="BDT::BDTG_UF_v2">
  <GeneralInfo>
    <Info name="TMVA Release" value="4.2.1 [262657]"/>
    <Info name="ROOT Release" value="6.10/09 [395785]"/>
    <Info name="Creator" value="xzuo"/>
    <Info name="Date" value="Wed Mar 11 21:57:15 2020"/>
    <Info name="Host" value="Linux cmsbuild49.cern.ch 2.6.32-696.10.2.el6.x86_64 #1 SMP Thu Sep 14 16:35:02 CEST 2017 x86_64 x86_64 x86_64 GNU/Linux"/>
    <Info name="Dir" value="/afs/cern.ch/work/x/xzuo/h2mm_944/src/H2MuAnalyzer/TrainMVA"/>
    <Info name="Training events" value="97501"/>
    <Info name="TrainingTime" value="3.04553530e+01"/>
    <Info name="AnalysisType" value="Classification"/>
  </GeneralInfo>
  <Options>
    <Option name="V" modified="Yes">False</Option>
    <Option name="VerbosityLevel" modified="No">Default</Option>
    <Option name="VarTransform" modified="No">None</Option>
    <Option name="H" modified="Yes">False</Option>
    <Option name="CreateMVAPdfs" modified="No">False</Option>
    <Option name="IgnoreNegWeightsInTraining" modified="No">False</Option>
    <Option name="NTrees" modified="Yes">400</Option>
    <Option name="MaxDepth" modified="Yes">3</Option>
    <Option name="MinNodeSize" modified="No">5%</Option>
    <Option name="nCuts" modified="Yes">10</Option>
    <Option name="BoostType" modified="Yes">Grad</Option>
    <Option name="AdaBoostR2Loss" modified="No">quadratic</Option>
    <Option name="UseBaggedBoost" modified="Yes">True</Option>
    <Option name="Shrinkage" modified="Yes">1.000000e-01</Option>
    <Option name="AdaBoostBeta" modified="No">5.000000e-01</Option>
    <Option name="UseRandomisedTrees" modified="No">False</Option>
    <Option name="UseNvars" modified="No">3</Option>
    <Option name="UsePoissonNvars" modified="No">True</Option>
    <Option name="BaggedSampleFraction" modified="Yes">5.000000e-01</Option>
    <Option name="UseYesNoLeaf" modified="No">True</Option>
    <Option name="NegWeightTreatment" modified="No">pray</Option>
    <Option name="Css" modified="No">1.000000e+00</Option>
    <Option name="Cts_sb" modified="No">1.000000e+00</Option>
    <Option name="Ctb_ss" modified="No">1.000000e+00</Option>
    <Option name="Cbb" modified="No">1.000000e+00</Option>
    <Option name="NodePurityLimit" modified="No">5.000000e-01</Option>
    <Option name="SeparationType" modified="No">giniindex</Option>
    <Option name="RegressionLossFunctionBDTG" modified="No">huber</Option>
    <Option name="HuberQuantile" modified="No">7.000000e-01</Option>
    <Option name="DoBoostMonitor" modified="No">False</Option>
    <Option name="UseFisherCuts" modified="No">False</Option>
    <Option name="MinLinCorrForFisher" modified="No">8.000000e-01</Option>
    <Option name="UseExclusiveVars" modified="No">False</Option>
    <Option name="DoPreselection" modified="No">False</Option>
    <Option name="SigToBkgFraction" modified="No">1.000000e+00</Option>
    <Option name="PruneMethod" modified="No">nopruning</Option>
    <Option name="PruneStrength" modified="No">0.000000e+00</Option>
    <Option name="PruningValFraction" modified="No">5.000000e-01</Option>
    <Option name="SkipNormalization" modified="No">False</Option>
    <Option name="nEventsMin" modified="No">0</Option>
    <Option name="UseBaggedGrad" modified="No">False</Option>
    <Option name="GradBaggingFraction" modified="No">5.000000e-01</Option>
    <Option name="UseNTrainEvents" modified="No">0</Option>
    <Option name="NNodesMax" modified="No">0</Option>
  </Options>
  <Variables NVar="10">
    <Variable VarIndex="0" Expression="dimu_pt" Label="dimu_pt" Title="p_{T}(#mu#mu)" Unit="GeV" Internal="dimu_pt" Type="F" Min="9.71894041e-02" Max="1.49619067e+03"/>
    <Variable VarIndex="1" Expression="dimu_abs_eta" Label="dimu_abs_eta" Title="|#eta(#mu#mu)|" Unit="" Internal="dimu_abs_eta" Type="F" Min="6.67354107e-05" Max="7.77416563e+00"/>
    <Variable VarIndex="2" Expression="dimu_abs_dPhi" Label="dimu_abs_dPhi" Title="|d#phi(#mu#mu)|" Unit="" Internal="dimu_abs_dPhi" Type="F" Min="1.78813934e-06" Max="3.14158130e+00"/>
    <Variable VarIndex="3" Expression="dilep_mass" Label="dilep_mass" Title="M(ll)" Unit="GeV" Internal="dilep_mass" Type="F" Min="8.10004272e+01" Max="1.00999596e+02"/>
    <Variable VarIndex="4" Expression="dilep_pt" Label="dilep_pt" Title="P_{T}(ll)" Unit="GeV" Internal="dilep_pt" Type="F" Min="1.32321507e-01" Max="1.58713171e+03"/>
    <Variable VarIndex="5" Expression="dilep_abs_eta" Label="dilep_abs_eta" Title="|#eta(ll)|" Unit="" Internal="dilep_abs_eta" Type="F" Min="3.77057586e-05" Max="7.53903484e+00"/>
    <Variable VarIndex="6" Expression="dilep_dR" Label="dilep_dR" Title="dR(ll)" Unit="" Internal="dilep_dR" Type="F" Min="1.16036274e-01" Max="4.22912741e+00"/>
    <Variable VarIndex="7" Expression="lep_ID" Label="lep_ID" Title="lep_ID" Unit="" Internal="lep_ID" Type="I" Min="1.10000000e+01" Max="1.30000000e+01"/>
    <Variable VarIndex="8" Expression="dipair_dEta_H" Label="dipair_dEta_H" Title="d#eta((#mu#mu),(ll))" Unit="" Internal="dipair_dEta_H" Type="F" Min="-9.08426666e+00" Max="9.79376030e+00"/>
    <Variable VarIndex="9" Expression="cts_dipair_H" Label="cts_dipair_H" Title="cos(#theta*)((#mu#mu),(ll))" Unit="" Internal="cts_dipair_H" Type="F" Min="-9.99984860e-01" Max="9.99976754e-01"/>
  </Variables>
  <Spectators NSpec="6">
    <Spectator SpecIndex="0" Expression="event_wgt" Label="event_wgt" Title="event weight" Unit="" Internal="event_wgt" Type="F" Min="-1.64065576e+00" Max="1.23004847e+01"/>
    <Spectator SpecIndex="1" Expression="xsec_norm" Label="xsec_norm" Title="xsec normal" Unit="" Internal="xsec_norm" Type="F" Min="2.49999994e-05" Max="4.48510014e-02"/>
    <Spectator SpecIndex="2" Expression="Sample_ID" Label="Sample_ID" Title="Sample ID" Unit="" Internal="Sample_ID" Type="F" Min="-2.32300000e+07" Max="1.30232500e+06"/>
    <Spectator SpecIndex="3" Expression="lep_ID" Label="lep_ID" Title="the Z decays to" Unit="" Internal="lep_ID" Type="F" Min="1.10000000e+01" Max="1.30000000e+01"/>
    <Spectator SpecIndex="4" Expression="dimu_mass" Label="dimu_mass" Title="mass(#mu#mu)" Unit="GeV" Internal="dimu_mass" Type="F" Min="1.05232132e+02" Max="1.49998306e+02"/>
    <Spectator SpecIndex="5" Expression="all_lepMVA_SF" Label="all_lepMVA_SF" Title="lepMVA SF" Unit="" Internal="all_lepMVA_SF" Type="F" Min="7.51627624e-01" Max="1.03886151e+00"/>
  </Spectators>
  <Classes NClass="2">
    <Class Name="Background" Index="0"/>
    <Class Name="Signal" Index="1"/>
  </Classes>
  <Transformations NTransformations="0"/>
  <MVAPdfs/>
  <Weights NTrees="400" AnalysisType="1">
    <BinaryTree type="DecisionTree" boostWeight="1.0000000000000000e+00" itree="0">
      <Node pos="s" depth="0" NCoef="0" IVar="6" Cut="1.9755251407623291e+00" cType="1" res="-1.6740425489842892e-03" rms="4.9999719858169556e-01" purity="4.9832594394683838e-01" nType="0">
        <Node pos="l" depth="1" NCoef="0" IVar="1" Cut="1.8608444929122925e+00" cType="1" res="9.8794050514698029e-02" rms="4.9014255404472351e-01" purity="5.9879404306411743e-01" nType="0">
          <Node pos="l" depth="2" NCoef="0" IVar="9" Cut="-6.3725358247756958e-01" cType="1" res="1.2942114472389221e-01" rms="4.8295980691909790e-01" purity="6.2942111492156982e-01" nType="0">
            <Node pos="l" depth="3" NCoef="0" IVar="-1" Cut="0.0000000000000000e+00" cType="1" res="-2.5911966804414988e-04" rms="4.9996393918991089e-01" purity="4.9399504065513611e-01" nType="-99"/>
            <Node pos="r" depth="3" NCoef="0" IVar="-1" Cut="0.0000000000000000e+00" cType="1" res="1.5511155128479004e-02" rms="4.7456759214401245e-01" purity="6.5743446350097656e-01" nType="-99"/>
          </Node>
          <Node pos="r" depth="2" NCoef="0" IVar="-1" Cut="0.0000000000000000e+00" cType="1" res="-6.8664713762700558e-03" rms="4.9358332157135010e-01" purity="4.2015320062637329e-01" nType="-99"/>
        </Node>
        <Node pos="r" depth="1" NCoef="0" IVar="9" Cut="8.1816995143890381e-01" cType="1" res="-7.6078854501247406e-02" rms="4.9417811632156372e-01" purity="4.2392116785049438e-01" nType="0">
          <Node pos="l" depth="2" NCoef="0" IVar="5" Cut="1.8854709863662720e+00" cType="1" res="-4.6698439866304398e-02" rms="4.9781447649002075e-01" purity="4.5330154895782471e-01" nType="0">
            <Node pos="l" depth="3" NCoef="0" IVar="-1" Cut="0.0000000000000000e+00" cType="1" res="1.5877808618824929e-04" rms="4.9999791383743286e-01" purity="5.0144791603088379e-01" nType="-99"/>
            <Node pos="r" depth="3" NCoef="0" IVar="-1" Cut="0.0000000000000000e+00" cType="1" res="-1.7018772661685944e-02" rms="4.8219349980354309e-01" purity="3.6775243282318115e-01" nType="-99"/>
          </Node>
          <Node pos="r" depth="2" NCoef="0" IVar="-1" Cut="0.0000000000000000e+00" cType="1" res="-1.6314592212438583e-02" rms="4.4386827945709229e-01" purity="2.6982408761978149e-01" nType="-99"/>
        </Node>
      </Node>
    </BinaryTree>
    <BinaryTree type="DecisionTree" boostWeight="1.0000000000000000e+00" itree="1">
      <Node pos="s" depth="0" NCoef="0" IVar="1" Cut="1.9523632526397705e+00" cType="1" res="4.0159872733056545e-03" rms="4.9846956133842468e-01" purity="5.0384122133255005e-01" nType="0">
        <Node pos="l" depth="1" NCoef="0" IVar="6" Cut="1.6037319898605347e+00" cType="1" res="5.7758923619985580e-02" rms="4.9528884887695312e-01" purity="5.5948197841644287e-01" nType="0">
          <Node pos="l" depth="2" NCoef="0" IVar="1" Cut="1.2421128749847412e+00" cType="1" res="1.7368133366107941e-01" rms="4.6606490015983582e-01" purity="6.7990851402282715e-01" nType="0">
            <Node pos="l" depth="3" NCoef="0" IVar="-1" Cut="0.0000000000000000e+00" cType="1" res="1.2594869360327721e-02" rms="4.5465561747550964e-01" purity="7.0701289176940918e-01" nType="-99"/>
            <Node pos="r" depth="3" NCoef="0" IVar="-1" Cut="0.0000000000000000e+00" cType="1" res="1.2464819476008415e-02" rms="4.8755407333374023e-01" purity="6.0920739173889160e-01" nType="-99"/>
          </Node>
          <Node pos="r" depth="2" NCoef="0" IVar="5" Cut="2.3029522895812988e+00" cType="1" res="2.4039696436375380e-03" rms="4.9924504756927490e-01" purity="5.0197631120681763e-01" nType="0">
            <Node pos="l" depth="3" NCoef="0" IVar="-1" Cut="0.0000000000000000e+00" cType="1" res="2.3275741841644049e-03" rms="4.9897581338882446e-01" purity="5.2334237098693848e-01" nType="-99"/>
            <Node pos="r" depth="3" NCoef="0" IVar="-1" Cut="0.0000000000000000e+00" cType="1" res="-2.1184053272008896e-02" rms="4.6605253219604492e-01" purity="3.1922733783721924e-01" nType="-99"/>
          </Node>
        </Node>
        <Node pos="r" depth="1" NCoef="0" IVar="9" Cut="8.1816542148590088e-01" cType="1" res="-1.4749449491500854e-01" rms="4.7569409012794495e-01" purity="3.4698051214218140e-01" nType="0">
          <Node pos="l" depth="2" NCoef="0" IVar="7" Cut="1.2000000000000000e+01" cType="1" res="-1.0521644353866577e-01" rms="4.8625394701957703e-01" purity="3.8852864503860474e-01" nType="0">
            <Node pos="l" depth="3" NCoef="0" IVar="-1" Cut="0.0000000000000000e+00" cType="1" res="-4.0408633649349213e-03" rms="4.9651622772216797e-01" purity="4.4118988513946533e-01" nType="-99"/>
            <Node pos="r" depth="3" NCoef="0" IVar="-1" Cut="0.0000000000000000e+00" cType="1" res="-1.0573122650384903e-02" rms="4.7976702451705933e-01" purity="3.5985910892486572e-01" nType="-99"/>
          </Node>
          <Node pos="r" depth="2" NCoef="0" IVar="-1" Cut="0.0000000000000000e+00" cType="1" res="-1.1114765889942646e-02" rms="4.1897416114807129e-01" purity="2.2711275517940521e-01" nType="-99"/>
        </Node>
      </Node>
    </BinaryTree>
    <BinaryTree type="DecisionTree" boostWeight="1.0000000000000000e+00" itree="2">
      <Node pos="s" depth="0" NCoef="0" IVar="6" Cut="1.9939396381378174e+00" cType="1" res="-1.3225834118202329e-03" rms="4.9757644534111023e-01" purity="4.9896690249443054e-01" nType="0">
        <Node pos="l" depth="1" NCoef="0" IVar="1" Cut="1.4275225400924683e+00" cType="1" res="8.7133489549160004e-02" rms="4.8939365148544312e-01" purity="5.9526050090789795e-01" nType="0">
          <Node pos="l" depth="2" NCoef="0" IVar="9" Cut="-4.5593214035034180e-01" cType="1" res="1.3569125533103943e-01" rms="4.7744071483612061e-01" purity="6.4637285470962524e-01" nType="0">
            <Node pos="l" depth="3" NCoef="0" IVar="-1" Cut="0.0000000000000000e+00" cType="1" res="4.1274353861808777e-03" rms="4.9585005640983582e-01" purity="5.5812442302703857e-01" nType="-99"/>
            <Node pos="r" depth="3" NCoef="0" IVar="-1" Cut="0.0000000000000000e+00" cType="1" res="1.4786030165851116e-02" rms="4.6334931254386902e-01" purity="6.8741542100906372e-01" nType="-99"/>
          </Node>
          <Node pos="r" depth="2" NCoef="0" IVar="1" Cut="1.7736294269561768e+00" cType="1" res="-2.3349320515990257e-02" rms="4.9822607636451721e-01" purity="4.7896537184715271e-01" nType="0">
            <Node pos="l" depth="3" NCoef="0" IVar="-1" Cut="0.0000000000000000e+00" cType="1" res="3.6464834120124578e-03" rms="4.9686056375503540e-01" purity="5.5099898576736450e-01" nType="-99"/>
            <Node pos="r" depth="3" NCoef="0" IVar="-1" Cut="0.0000000000000000e+00" cType="1" res="-3.8894508033990860e-03" rms="4.9438405036926270e-01" purity="4.2881461977958679e-01" nType="-99"/>
          </Node>
        </Node>
        <Node pos="r" depth="1" NCoef="0" IVar="9" Cut="8.1817078590393066e-01" cType="1" res="-6.8993091583251953e-02" rms="4.9314862489700317e-01" purity="4.2530059814453125e-01" nType="0">
          <Node pos="l" depth="2" NCoef="0" IVar="5" Cut="1.8852804899215698e+00" cType="1" res="-4.4093508273363113e-02" rms="4.9660718441009521e-01" purity="4.5128402113914490e-01" nType="0">
            <Node pos="l" depth="3" NCoef="0" IVar="-1" Cut="0.0000000000000000e+00" cType="1" res="-2.1757377544417977e-04" rms="4.9985510110855103e-01" purity="4.9770182371139526e-01" nType="-99"/>
            <Node pos="r" depth="3" NCoef="0" IVar="-1" Cut="0.0000000000000000e+00" cType="1" res="-1.4633982442319393e-02" rms="4.8259779810905457e-01" purity="3.7107390165328979e-01" nType="-99"/>
          </Node>
          <Node pos="r" depth="2" NCoef="0" IVar="-1" Cut="0.0000000000000000e+00" cType="1" res="-2.6828248053789139e-02" rms="4.5190379023551941e-01" purity="2.8725910186767578e-01" nType="-99"/>
        </Node>
      </Node>
    </BinaryTree>
    <BinaryTree type="DecisionTree" boostWeight="1.0000000000000000e+00" itree="3">
      <Node pos="s" depth="0" NCoef="0" IVar="1" Cut="1.4135808944702148e+00" cType="1" res="3.2761320471763611e-04" rms="4.9614658951759338e-01" purity="4.9972394108772278e-01" nType="0">
        <Node pos="l" depth="1" NCoef="0" IVar="5" Cut="1.7112425565719604e+00" cType="1" res="6.8728752434253693e-02" rms="4.9145302176475525e-01" purity="5.7525175809860229e-01" nType="0">
          <Node pos="l" depth="2" NCoef="0" IVar="6" Cut="2.1775937080383301e+00" cType="1" res="1.0551517456769943e-01" rms="4.8501637578010559e-01" purity="6.1546659469604492e-01" nType="0">
            <Node pos="l" depth="3" NCoef="0" IVar="-1" Cut="0.0000000000000000e+00" cType="1" res="1.1062643490731716e-02" rms="4.7213077545166016e-01" purity="6.6232132911682129e-01" nType="-99"/>
            <Node pos="r" depth="3" NCoef="0" IVar="-1" Cut="0.0000000000000000e+00" cType="1" res="1.7431965097784996e-03" rms="4.9963459372520447e-01" purity="5.1933383941650391e-01" nType="-99"/>
          </Node>
          <Node pos="r" depth="2" NCoef="0" IVar="-1" Cut="0.0000000000000000e+00" cType="1" res="-5.2294847555458546e-03" rms="4.8628664016723633e-01" purity="3.9516472816467285e-01" nType="-99"/>
        </Node>
        <Node pos="r" depth="1" NCoef="0" IVar="9" Cut="8.1813722848892212e-01" cType="1" res="-8.5171535611152649e-02" rms="4.8866873979568481e-01" purity="4.0531674027442932e-01" nType="0">
          <Node pos="l" depth="2" NCoef="0" IVar="5" Cut="2.5135657787322998e+00" cType="1" res="-5.4653421044349670e-02" rms="4.9465095996856689e-01" purity="4.3898090720176697e-01" nType="0">
            <Node pos="l" depth="3" NCoef="0" IVar="-1" Cut="0.0000000000000000e+00" cType="1" res="-3.2875004690140486e-03" rms="4.9743899703025818e-01" purity="4.6248766779899597e-01" nType="-99"/>
            <Node pos="r" depth="3" NCoef="0" IVar="-1" Cut="0.0000000000000000e+00" cType="1" res="-1.0900417342782021e-02" rms="4.6765911579132080e-01" purity="3.2305023074150085e-01" nType="-99"/>
          </Node>
          <Node pos="r" depth="2" NCoef="0" IVar="-1" Cut="0.0000000000000000e+00" cType="1" res="-3.1617455184459686e-02" rms="4.3281158804893494e-01" purity="2.4954319000244141e-01" nType="-99"/>
        </Node>
      </Node>
    </BinaryTree>
    <BinaryTree type="DecisionTree" boostWeight="1.0000000000000000e+00" itree="4">
      <Node pos="s" depth="0" NCoef="0" IVar="6" Cut="1.9856231212615967e+00" cType="1" res="2.9529086314141750e-03" rms="4.9495133757591248e-01" purity="5.0186443328857422e-01" nType="0">
        <Node pos="l" depth="1" NCoef="0" IVar="1" Cut="1.5236264467239380e+00" cType="1" res="8.7550841271877289e-02" rms="4.8681220412254333e-01" purity="6.0246700048446655e-01" nType="0">
          <Node pos="l" depth="2" NCoef="0" IVar="9" Cut="-4.5646724104881287e-01" cType="1" res="1.2321276962757111e-01" rms="4.7767201066017151e-01" purity="6.4378625154495239e-01" nType="0">
            <Node pos="l" depth="3" NCoef="0" IVar="-1" Cut="0.0000000000000000e+00" cType="1" res="2.9593727085739374e-03" rms="4.9530142545700073e-01" purity="5.6060570478439331e-01" nType="-99"/>
            <Node pos="r" depth="3" NCoef="0" IVar="-1" Cut="0.0000000000000000e+00" cType="1" res="1.6393715515732765e-02" rms="4.6532174944877625e-01" purity="6.8181616067886353e-01" nType="-99"/>
          </Node>
          <Node pos="r" depth="2" NCoef="0" IVar="5" Cut="1.2799115180969238e+00" cType="1" res="-1.6222119331359863e-02" rms="4.9816572666168213e-01" purity="4.8223179578781128e-01" nType="0">
            <Node pos="l" depth="3" NCoef="0" IVar="-1" Cut="0.0000000000000000e+00" cType="1" res="-5.9711243957281113e-03" rms="4.9207943677902222e-01" purity="4.2158123850822449e-01" nType="-99"/>
            <Node pos="r" depth="3" NCoef="0" IVar="-1" Cut="0.0000000000000000e+00" cType="1" res="5.6982520036399364e-03" rms="4.9612018465995789e-01" purity="5.4848533868789673e-01" nType="-99"/>
          </Node>
        </Node>
        <Node pos="r" depth="1" NCoef="0" IVar="1" Cut="1.8823677301406860e+00" cType="1" res="-6.0008496046066284e-02" rms="4.9156209826469421e-01" purity="4.2699164152145386e-01" nType="0">
          <Node pos="l" depth="2" NCoef="0" IVar="5" Cut="1.7271410226821899e+00" cType="1" res="-1.7147986218333244e-02" rms="4.9737322330474854e-01" purity="4.7641023993492126e-01" nType="0">
            <Node pos="l" depth="3" NCoef="0" IVar="-1" Cut="0.0000000000000000e+00" cType="1" res="1.9670031033456326e-03" rms="4.9873813986778259e-01" purity="5.2176880836486816e-01" nType="-99"/>
            <Node pos="r" depth="3" NCoef="0" IVar="-1" Cut="0.0000000000000000e+00" cType="1" res="-5.9347175993025303e-03" rms="4.8243448138237000e-01" purity="3.7367880344390869e-01" nType="-99"/>
          </Node>
          <Node pos="r" depth="2" NCoef="0" IVar="9" Cut="8.1816667318344116e-01" cType="1" res="-1.3126991689205170e-01" rms="4.7322925925254822e-01" purity="3.4482643008232117e-01" nType="0">
            <Node pos="l" depth="3" NCoef="0" IVar="-1" Cut="0.0000000000000000e+00" cType="1" res="-1.0494532994925976e-02" rms="4.8656415939331055e-01" purity="3.8798391819000244e-01" nType="-99"/>
            <Node pos="r" depth="3" NCoef="0" IVar="-1" Cut="0.0000000000000000e+00" cType="1" res="-3.1373478472232819e-02" rms="4.2759954929351807e-01" purity="2.4090000987052917e-01" nType="-99"/>
          </Node>
        </Node>
      </Node>
    </BinaryTree>
    <BinaryTree type="DecisionTree" boostWeight="1.0000000000000000e+00" itree="5">
      <Node pos="s" depth="0" NCoef="0" IVar="6" Cut="2.3475799560546875e+00" cType="1" res="3.9364246185868979e-04" rms="4.9379935860633850e-01" purity="4.9909707903862000e-01" nType="0">
        <Node pos="l" depth="1" NCoef="0" IVar="8" Cut="1.4881412982940674e+00" cType="1" res="5.6127835065126419e-02" rms="4.9123355746269226e-01" purity="5.6820720434188843e-01" nType="0">
          <Node pos="l" depth="2" NCoef="0" IVar="8" Cut="-1.3998416662216187e+00" cType="1" res="7.6457478106021881e-02" rms="4.8825106024742126e-01" purity="5.8988493680953979e-01" nType="0">
            <Node pos="l" depth="3" NCoef="0" IVar="-1" Cut="0.0000000000000000e+00" cType="1" res="-1.2719547376036644e-02" rms="4.8217365145683289e-01" purity="3.7426275014877319e-01" nType="-99"/>
            <Node pos="r" depth="3" NCoef="0" IVar="-1" Cut="0.0000000000000000e+00" cType="1" res="7.7311894856393337e-03" rms="4.8286378383636475e-01" purity="6.1765933036804199e-01" nType="-99"/>
          </Node>
          <Node pos="r" depth="2" NCoef="0" IVar="-1" Cut="0.0000000000000000e+00" cType="1" res="-1.2619518674910069e-02" rms="4.7492966055870056e-01" purity="3.5331237316131592e-01" nType="-99"/>
        </Node>
        <Node pos="r" depth="1" NCoef="0" IVar="9" Cut="8.1816571950912476e-01" cType="1" res="-7.7635124325752258e-02" rms="4.8676365613937378e-01" purity="4.0234181284904480e-01" nType="0">
          <Node pos="l" depth="2" NCoef="0" IVar="5" Cut="1.8913099765777588e+00" cType="1" res="-5.5068198591470718e-02" rms="4.9337765574455261e-01" purity="4.3189704418182373e-01" nType="0">
            <Node pos="l" depth="3" NCoef="0" IVar="-1" Cut="0.0000000000000000e+00" cType="1" res="-6.1614793958142400e-04" rms="4.9955317378044128e-01" purity="4.8989558219909668e-01" nType="-99"/>
            <Node pos="r" depth="3" NCoef="0" IVar="-1" Cut="0.0000000000000000e+00" cType="1" res="-1.0553196072578430e-02" rms="4.7926130890846252e-01" purity="3.5892373323440552e-01" nType="-99"/>
          </Node>
          <Node pos="r" depth="2" NCoef="0" IVar="-1" Cut="0.0000000000000000e+00" cType="1" res="-8.6437491700053215e-03" rms="4.4618687033653259e-01" purity="2.7950644493103027e-01" nType="-99"/>
        </Node>
      </Node>
    </BinaryTree>
    <BinaryTree type="DecisionTree" boostWeight="1.0000000000000000e+00" itree="6">
      <Node pos="s" depth="0" NCoef="0" IVar="1" Cut="2.1202967166900635e+00" cType="1" res="4.1360324248671532e-03" rms="4.9284285306930542e-01" purity="5.0312912464141846e-01" nType="0">
        <Node pos="l" depth="1" NCoef="0" IVar="6" Cut="1.5485150814056396e+00" cType="1" res="3.7283677607774734e-02" rms="4.9265533685684204e-01" purity="5.4440885782241821e-01" nType="0">
          <Node pos="l" depth="2" NCoef="0" IVar="8" Cut="-4.9992576241493225e-01" cType="1" res="1.3291895389556885e-01" rms="4.7080773115158081e-01" purity="6.6034650802612305e-01" nType="0">
            <Node pos="l" depth="3" NCoef="0" IVar="-1" Cut="0.0000000000000000e+00" cType="1" res="2.7550919912755489e-03" rms="4.9169215559959412e-01" purity="5.7897961139678955e-01" nType="-99"/>
            <Node pos="r" depth="3" NCoef="0" IVar="-1" Cut="0.0000000000000000e+00" cType="1" res="1.6880579292774200e-02" rms="4.5841568708419800e-01" purity="6.9317209720611572e-01" nType="-99"/>
          </Node>
          <Node pos="r" depth="2" NCoef="0" IVar="5" Cut="1.7272025346755981e+00" cType="1" res="-2.4140418972820044e-03" rms="4.9605882167816162e-01" purity="4.9628371000289917e-01" nType="0">
            <Node pos="l" depth="3" NCoef="0" IVar="-1" Cut="0.0000000000000000e+00" cType="1" res="3.0666086822748184e-03" rms="4.9606707692146301e-01" purity="5.3975325822830200e-01" nType="-99"/>
            <Node pos="r" depth="3" NCoef="0" IVar="-1" Cut="0.0000000000000000e+00" cType="1" res="-7.1790581569075584e-03" rms="4.8303744196891785e-01" purity="3.7921452522277832e-01" nType="-99"/>
          </Node>
        </Node>
        <Node pos="r" depth="1" NCoef="0" IVar="9" Cut="4.5452105998992920e-01" cType="1" res="-1.2469451874494553e-01" rms="4.7195827960968018e-01" purity="3.4269261360168457e-01" nType="0">
          <Node pos="l" depth="2" NCoef="0" IVar="-1" Cut="0.0000000000000000e+00" cType="1" res="-5.7948706671595573e-03" rms="4.8902535438537598e-01" purity="4.0243244171142578e-01" nType="-99"/>
          <Node pos="r" depth="2" NCoef="0" IVar="1" Cut="2.6343245506286621e+00" cType="1" res="-1.7092108726501465e-01" rms="4.5102366805076599e-01" purity="2.8870996832847595e-01" nType="0">
            <Node pos="l" depth="3" NCoef="0" IVar="-1" Cut="0.0000000000000000e+00" cType="1" res="-1.5566836111247540e-02" rms="4.6156620979309082e-01" purity="3.1363415718078613e-01" nType="-99"/>
            <Node pos="r" depth="3" NCoef="0" IVar="-1" Cut="0.0000000000000000e+00" cType="1" res="-1.4574089087545872e-02" rms="4.3975436687469482e-01" purity="2.6430901885032654e-01" nType="-99"/>
          </Node>
        </Node>
      </Node>
    </BinaryTree>
    <BinaryTree type="DecisionTree" boostWeight="1.0000000000000000e+00" itree="7">
      <Node pos="s" depth="0" NCoef="0" IVar="1" Cut="2.0089631080627441e+00" cType="1" res="-3.5291127860546112e-03" rms="4.9225679039955139e-01" purity="4.9596670269966125e-01" nType="0">
        <Node pos="l" depth="1" NCoef="0" IVar="6" Cut="1.6388132572174072e+00" cType="1" res="3.0574224889278412e-02" rms="4.9275916814804077e-01" purity="5.4080051183700562e-01" nType="0">
          <Node pos="l" depth="2" NCoef="0" IVar="0" Cut="1.0572938537597656e+02" cType="1" res="1.1208219081163406e-01" rms="4.7546121478080750e-01" purity="6.4558428525924683e-01" nType="0">
            <Node pos="l" depth="3" NCoef="0" IVar="-1" Cut="0.0000000000000000e+00" cType="1" res="7.7097362373024225e-04" rms="4.9657604098320007e-01" purity="5.3644770383834839e-01" nType="-99"/>
            <Node pos="r" depth="3" NCoef="0" IVar="-1" Cut="0.0000000000000000e+00" cType="1" res="1.0040348395705223e-02" rms="4.6403041481971741e-01" purity="6.8023747205734253e-01" nType="-99"/>
          </Node>
          <Node pos="r" depth="2" NCoef="0" IVar="8" Cut="1.6488072872161865e+00" cType="1" res="-1.1315407231450081e-02" rms="4.9623578786849976e-01" purity="4.8694869875907898e-01" nType="0">
            <Node pos="l" depth="3" NCoef="0" IVar="-1" Cut="0.0000000000000000e+00" cType="1" res="8.9982774807140231e-04" rms="4.9704670906066895e-01" purity="5.0914508104324341e-01" nType="-99"/>
            <Node pos="r" depth="3" NCoef="0" IVar="-1" Cut="0.0000000000000000e+00" cType="1" res="-4.3249819427728653e-03" rms="4.6779647469520569e-01" purity="3.3223390579223633e-01" nType="-99"/>
          </Node>
        </Node>
        <Node pos="r" depth="1" NCoef="0" IVar="9" Cut="8.1816667318344116e-01" cType="1" res="-1.1371966451406479e-01" rms="4.7414988279342651e-01" purity="3.5110518336296082e-01" nType="0">
          <Node pos="l" depth="2" NCoef="0" IVar="3" Cut="9.0093475341796875e+01" cType="1" res="-8.4417283535003662e-02" rms="4.8690173029899597e-01" purity="3.9104178547859192e-01" nType="0">
            <Node pos="l" depth="3" NCoef="0" IVar="-1" Cut="0.0000000000000000e+00" cType="1" res="-5.6102094240486622e-03" rms="4.7776678204536438e-01" purity="3.5661727190017700e-01" nType="-99"/>
            <Node pos="r" depth="3" NCoef="0" IVar="-1" Cut="0.0000000000000000e+00" cType="1" res="-4.6964292414486408e-03" rms="4.9178630113601685e-01" purity="4.1518002748489380e-01" nType="-99"/>
          </Node>
          <Node pos="r" depth="2" NCoef="0" IVar="-1" Cut="0.0000000000000000e+00" cType="1" res="-2.9373325407505035e-02" rms="4.2023754119873047e-01" purity="2.2878971695899963e-01" nType="-99"/>
        </Node>
      </Node>
    </BinaryTree>
    <BinaryTree type="DecisionTree" boostWeight="1.0000000000000000e+00" itree="8">
      <Node pos="s" depth="0" NCoef="0" IVar="1" Cut="1.2551088333129883e+00" cType="1" res="-6.3332705758512020e-03" rms="4.9130231142044067e-01" purity="4.9255323410034180e-01" nType="0">
        <Node pos="l" depth="1" NCoef="0" IVar="6" Cut="1.8580243587493896e+00" cType="1" res="5.9362363070249557e-02" rms="4.8860636353492737e-01" purity="5.7738482952117920e-01" nType="0">
          <Node pos="l" depth="2" NCoef="0" IVar="5" Cut="1.1875349283218384e+00" cType="1" res="1.2470043450593948e-01" rms="4.7048926353454590e-01" purity="6.6270697116851807e-01" nType="0">
            <Node pos="l" depth="3" NCoef="0" IVar="-1" Cut="0.0000000000000000e+00" cType="1" res="1.1664884164929390e-02" rms="4.6131953597068787e-01" purity="6.8998062610626221e-01" nType="-99"/>
            <Node pos="r" depth="3" NCoef="0" IVar="-1" Cut="0.0000000000000000e+00" cType="1" res="4.5152343809604645e-03" rms="4.8918378353118896e-01" purity="5.8697777986526489e-01" nType="-99"/>
          </Node>
          <Node pos="r" depth="2" NCoef="0" IVar="5" Cut="1.1982073783874512e+00" cType="1" res="-2.1082474850118160e-03" rms="4.9728128314018250e-01" purity="4.9711295962333679e-01" nType="0">
            <Node pos="l" depth="3" NCoef="0" IVar="-1" Cut="0.0000000000000000e+00" cType="1" res="4.7869910486042500e-03" rms="4.9599331617355347e-01" purity="5.5795812606811523e-01" nType="-99"/>
            <Node pos="r" depth="3" NCoef="0" IVar="-1" Cut="0.0000000000000000e+00" cType="1" res="-5.4786857217550278e-03" rms="4.9162346124649048e-01" purity="4.2274630069732666e-01" nType="-99"/>
          </Node>
        </Node>
        <Node pos="r" depth="1" NCoef="0" IVar="9" Cut="6.3632428646087646e-01" cType="1" res="-6.8457491695880890e-02" rms="4.8573186993598938e-01" purity="4.1233333945274353e-01" nType="0">
          <Node pos="l" depth="2" NCoef="0" IVar="9" Cut="-7.0245796442031860e-01" cType="1" res="-3.2164461910724640e-02" rms="4.9336999654769897e-01" purity="4.5888209342956543e-01" nType="0">
            <Node pos="l" depth="3" NCoef="0" IVar="-1" Cut="0.0000000000000000e+00" cType="1" res="-1.5535996295511723e-02" rms="4.6663692593574524e-01" purity="3.2423672080039978e-01" nType="-99"/>
            <Node pos="r" depth="3" NCoef="0" IVar="-1" Cut="0.0000000000000000e+00" cType="1" res="-8.8379258522763848e-04" rms="4.9535775184631348e-01" purity="4.8491746187210083e-01" nType="-99"/>
          </Node>
          <Node pos="r" depth="2" NCoef="0" IVar="9" Cut="8.0163282155990601e-01" cType="1" res="-1.5605850517749786e-01" rms="4.5500683784484863e-01" purity="2.9997798800468445e-01" nType="0">
            <Node pos="l" depth="3" NCoef="0" IVar="-1" Cut="0.0000000000000000e+00" cType="1" res="-1.3040801510214806e-02" rms="4.8626548051834106e-01" purity="3.8466194272041321e-01" nType="-99"/>
            <Node pos="r" depth="3" NCoef="0" IVar="-1" Cut="0.0000000000000000e+00" cType="1" res="-7.3118912987411022e-03" rms="4.3093955516815186e-01" purity="2.4672645330429077e-01" nType="-99"/>
          </Node>
        </Node>
      </Node>
    </BinaryTree>
    <BinaryTree type="DecisionTree" boostWeight="1.0000000000000000e+00" itree="9">
      <Node pos="s" depth="0" NCoef="0" IVar="6" Cut="1.9839724302291870e+00" cType="1" res="-2.5591938756406307e-03" rms="4.9119523167610168e-01" purity="4.9637311697006226e-01" nType="0">
        <Node pos="l" depth="1" NCoef="0" IVar="9" Cut="-6.3663691282272339e-01" cType="1" res="6.5091550350189209e-02" rms="4.8549062013626099e-01" purity="5.9409326314926147e-01" nType="0">
          <Node pos="l" depth="2" NCoef="0" IVar="-1" Cut="0.0000000000000000e+00" cType="1" res="-1.8170792609453201e-03" rms="4.9426096677780151e-01" purity="4.4304725527763367e-01" nType="-99"/>
          <Node pos="r" depth="2" NCoef="0" IVar="1" Cut="1.9035072326660156e+00" cType="1" res="9.1830000281333923e-02" rms="4.7922447323799133e-01" purity="6.2372469902038574e-01" nType="0">
            <Node pos="l" depth="3" NCoef="0" IVar="-1" Cut="0.0000000000000000e+00" cType="1" res="1.0820993222296238e-02" rms="4.7297587990760803e-01" purity="6.5505117177963257e-01" nType="-99"/>
            <Node pos="r" depth="3" NCoef="0" IVar="-1" Cut="0.0000000000000000e+00" cType="1" res="-3.2117818482220173e-03" rms="4.9213933944702148e-01" purity="4.3295335769653320e-01" nType="-99"/>
          </Node>
        </Node>
        <Node pos="r" depth="1" NCoef="0" IVar="1" Cut="1.4135808944702148e+00" cType="1" res="-5.2520502358675003e-02" rms="4.8939904570579529e-01" purity="4.2420497536659241e-01" nType="0">
          <Node pos="l" depth="2" NCoef="0" IVar="5" Cut="1.7972921133041382e+00" cType="1" res="-8.8379448279738426e-03" rms="4.9725955724716187e-01" purity="4.8613700270652771e-01" nType="0">
            <Node pos="l" depth="3" NCoef="0" IVar="-1" Cut="0.0000000000000000e+00" cType="1" res="1.7258134903386235e-03" rms="4.9884000420570374e-01" purity="5.2140444517135620e-01" nType="-99"/>
            <Node pos="r" depth="3" NCoef="0" IVar="-1" Cut="0.0000000000000000e+00" cType="1" res="-6.8870233371853828e-03" rms="4.8418763279914856e-01" purity="3.7869620323181152e-01" nType="-99"/>
          </Node>
          <Node pos="r" depth="2" NCoef="0" IVar="3" Cut="8.8273109436035156e+01" cType="1" res="-8.8142976164817810e-02" rms="4.7996017336845398e-01" purity="3.7370029091835022e-01" nType="0">
            <Node pos="l" depth="3" NCoef="0" IVar="-1" Cut="0.0000000000000000e+00" cType="1" res="-6.4158728346228600e-03" rms="4.5642709732055664e-01" purity="3.0178058147430420e-01" nType="-99"/>
            <Node pos="r" depth="3" NCoef="0" IVar="-1" Cut="0.0000000000000000e+00" cType="1" res="-6.4952084794640541e-03" rms="4.8408836126327515e-01" purity="3.9231836795806885e-01" nType="-99"/>
          </Node>
        </Node>
      </Node>
    </BinaryTree>
    <BinaryTree type="DecisionTree" boostWeight="1.0000000000000000e+00" itree="10">
      <Node pos="s" depth="0" NCoef="0" IVar="1" Cut="1.9524289369583130e+00" cType="1" res="1.3404629426077008e-03" rms="4.8994368314743042e-01" purity="5.0071340799331665e-01" nType="0">
        <Node pos="l" depth="1" NCoef="0" IVar="8" Cut="1.5031191110610962e+00" cType="1" res="3.5246927291154861e-02" rms="4.9058356881141663e-01" purity="5.4980683326721191e-01" nType="0">
          <Node pos="l" depth="2" NCoef="0" IVar="8" Cut="-1.7453023195266724e+00" cType="1" res="5.4841160774230957e-02" rms="4.8863101005554199e-01" purity="5.7297289371490479e-01" nType="0">
            <Node pos="l" depth="3" NCoef="0" IVar="-1" Cut="0.0000000000000000e+00" cType="1" res="-1.0178329423069954e-02" rms="4.8245251178741455e-01" purity="3.7326422333717346e-01" nType="-99"/>
            <Node pos="r" depth="3" NCoef="0" IVar="-1" Cut="0.0000000000000000e+00" cType="1" res="6.7665348760783672e-03" rms="4.8605963587760925e-01" purity="5.9383529424667358e-01" nType="-99"/>
          </Node>
          <Node pos="r" depth="2" NCoef="0" IVar="-1" Cut="0.0000000000000000e+00" cType="1" res="-1.3846050016582012e-02" rms="4.7684240341186523e-01" purity="3.5980784893035889e-01" nType="-99"/>
        </Node>
        <Node pos="r" depth="1" NCoef="0" IVar="9" Cut="8.1813168525695801e-01" cType="1" res="-9.9049068987369537e-02" rms="4.7403091192245483e-01" purity="3.5535869002342224e-01" nType="0">
          <Node pos="l" depth="2" NCoef="0" IVar="7" Cut="1.2000000000000000e+01" cType="1" res="-6.3059613108634949e-02" rms="4.8355704545974731e-01" purity="4.0306079387664795e-01" nType="0">
            <Node pos="l" depth="3" NCoef="0" IVar="-1" Cut="0.0000000000000000e+00" cType="1" res="-4.9287005094811320e-04" rms="4.9804082512855530e-01" purity="4.6580159664154053e-01" nType="-99"/>
            <Node pos="r" depth="3" NCoef="0" IVar="-1" Cut="0.0000000000000000e+00" cType="1" res="-9.9382475018501282e-03" rms="4.8132440447807312e-01" purity="3.6927464604377747e-01" nType="-99"/>
          </Node>
          <Node pos="r" depth="2" NCoef="0" IVar="-1" Cut="0.0000000000000000e+00" cType="1" res="-1.2227248400449753e-02" rms="4.0716674923896790e-01" purity="2.0978568494319916e-01" nType="-99"/>
        </Node>
      </Node>
    </BinaryTree>
    <BinaryTree type="DecisionTree" boostWeight="1.0000000000000000e+00" itree="11">
      <Node pos="s" depth="0" NCoef="0" IVar="1" Cut="1.4135392904281616e+00" cType="1" res="1.5593767166137695e-03" rms="4.8910132050514221e-01" purity="5.0044280290603638e-01" nType="0">
        <Node pos="l" depth="1" NCoef="0" IVar="9" Cut="-8.1802666187286377e-01" cType="1" res="5.2643075585365295e-02" rms="4.8663276433944702e-01" purity="5.7521748542785645e-01" nType="0">
          <Node pos="l" depth="2" NCoef="0" IVar="-1" Cut="0.0000000000000000e+00" cType="1" res="-8.2854423671960831e-03" rms="4.7977817058563232e-01" purity="3.7048137187957764e-01" nType="-99"/>
          <Node pos="r" depth="2" NCoef="0" IVar="6" Cut="1.9954298734664917e+00" cType="1" res="7.4744217097759247e-02" rms="4.8321741819381714e-01" purity="6.0225528478622437e-01" nType="0">
            <Node pos="l" depth="3" NCoef="0" IVar="-1" Cut="0.0000000000000000e+00" cType="1" res="1.1745991185307503e-02" rms="4.6580848097801208e-01" purity="6.7523664236068726e-01" nType="-99"/>
            <Node pos="r" depth="3" NCoef="0" IVar="-1" Cut="0.0000000000000000e+00" cType="1" res="7.9120922600850463e-04" rms="4.9699029326438904e-01" purity="5.0992190837860107e-01" nType="-99"/>
          </Node>
        </Node>
        <Node pos="r" depth="1" NCoef="0" IVar="9" Cut="8.1813746690750122e-01" cType="1" res="-6.0623206198215485e-02" rms="4.8488026857376099e-01" purity="4.0942189097404480e-01" nType="0">
          <Node pos="l" depth="2" NCoef="0" IVar="5" Cut="2.4682743549346924e+00" cType="1" res="-3.7047471851110458e-02" rms="4.9274170398712158e-01" purity="4.4514289498329163e-01" nType="0">
            <Node pos="l" depth="3" NCoef="0" IVar="-1" Cut="0.0000000000000000e+00" cType="1" res="-1.6839629970490932e-03" rms="4.9563980102539062e-01" purity="4.7008156776428223e-01" nType="-99"/>
            <Node pos="r" depth="3" NCoef="0" IVar="-1" Cut="0.0000000000000000e+00" cType="1" res="-7.9336520284414291e-03" rms="4.7107204794883728e-01" purity="3.3291679620742798e-01" nType="-99"/>
          </Node>
          <Node pos="r" depth="2" NCoef="0" IVar="-1" Cut="0.0000000000000000e+00" cType="1" res="-2.0138831809163094e-02" rms="4.3253183364868164e-01" purity="2.4953092634677887e-01" nType="-99"/>
        </Node>
      </Node>
    </BinaryTree>
    <BinaryTree type="DecisionTree" boostWeight="1.0000000000000000e+00" itree="12">
      <Node pos="s" depth="0" NCoef="0" IVar="6" Cut="2.0057256221771240e+00" cType="1" res="1.9825091294478625e-04" rms="4.8887631297111511e-01" purity="5.0047731399536133e-01" nType="0">
        <Node pos="l" depth="1" NCoef="0" IVar="9" Cut="4.5350772142410278e-01" cType="1" res="5.9913892298936844e-02" rms="4.8344200849533081e-01" purity="5.9679371118545532e-01" nType="0">
          <Node pos="l" depth="2" NCoef="0" IVar="9" Cut="-6.0334551334381104e-01" cType="1" res="8.2806304097175598e-02" rms="4.7902297973632812e-01" purity="6.2308752536773682e-01" nType="0">
            <Node pos="l" depth="3" NCoef="0" IVar="-1" Cut="0.0000000000000000e+00" cType="1" res="-9.8612590227276087e-04" rms="4.9619966745376587e-01" purity="4.8728922009468079e-01" nType="-99"/>
            <Node pos="r" depth="3" NCoef="0" IVar="-1" Cut="0.0000000000000000e+00" cType="1" res="1.0623966343700886e-02" rms="4.6901533007621765e-01" purity="6.6212552785873413e-01" nType="-99"/>
          </Node>
          <Node pos="r" depth="2" NCoef="0" IVar="-1" Cut="0.0000000000000000e+00" cType="1" res="-5.1389141008257866e-03" rms="4.8875227570533752e-01" purity="4.5918822288513184e-01" nType="-99"/>
        </Node>
        <Node pos="r" depth="1" NCoef="0" IVar="7" Cut="1.2000000000000000e+01" cType="1" res="-4.4793732464313507e-02" rms="4.8464450240135193e-01" purity="4.2478939890861511e-01" nType="0">
          <Node pos="l" depth="2" NCoef="0" IVar="9" Cut="4.5454666018486023e-01" cType="1" res="3.6264338996261358e-03" rms="4.9227151274681091e-01" purity="4.7699752449989319e-01" nType="0">
            <Node pos="l" depth="3" NCoef="0" IVar="-1" Cut="0.0000000000000000e+00" cType="1" res="3.9455215446650982e-03" rms="4.9467018246650696e-01" purity="5.1687133312225342e-01" nType="-99"/>
            <Node pos="r" depth="3" NCoef="0" IVar="-1" Cut="0.0000000000000000e+00" cType="1" res="-6.2668481841683388e-03" rms="4.8355266451835632e-01" purity="4.0621155500411987e-01" nType="-99"/>
          </Node>
          <Node pos="r" depth="2" NCoef="0" IVar="3" Cut="8.8274253845214844e+01" cType="1" res="-7.4489250779151917e-02" rms="4.8339739441871643e-01" purity="3.9600592851638794e-01" nType="0">
            <Node pos="l" depth="3" NCoef="0" IVar="-1" Cut="0.0000000000000000e+00" cType="1" res="-2.1806547418236732e-02" rms="4.5458704233169556e-01" purity="2.9865157604217529e-01" nType="-99"/>
            <Node pos="r" depth="3" NCoef="0" IVar="-1" Cut="0.0000000000000000e+00" cType="1" res="-5.4746232926845551e-03" rms="4.8730325698852539e-01" purity="4.1919851303100586e-01" nType="-99"/>
          </Node>
        </Node>
      </Node>
    </BinaryTree>
    <BinaryTree type="DecisionTree" boostWeight="1.0000000000000000e+00" itree="13">
      <Node pos="s" depth="0" NCoef="0" IVar="1" Cut="2.1202754974365234e+00" cType="1" res="-7.6420800760388374e-03" rms="4.8749694228172302e-01" purity="4.9099367856979370e-01" nType="0">
        <Node pos="l" depth="1" NCoef="0" IVar="6" Cut="1.9653601646423340e+00" cType="1" res="2.0787527784705162e-02" rms="4.8938938975334167e-01" purity="5.3449773788452148e-01" nType="0">
          <Node pos="l" depth="2" NCoef="0" IVar="9" Cut="-6.3663691282272339e-01" cType="1" res="7.3186233639717102e-02" rms="4.7956910729408264e-01" purity="6.1920726299285889e-01" nType="0">
            <Node pos="l" depth="3" NCoef="0" IVar="-1" Cut="0.0000000000000000e+00" cType="1" res="-1.9356309203431010e-03" rms="4.9621507525444031e-01" purity="4.7484329342842102e-01" nType="-99"/>
            <Node pos="r" depth="3" NCoef="0" IVar="-1" Cut="0.0000000000000000e+00" cType="1" res="9.1105233877897263e-03" rms="4.7306913137435913e-01" purity="6.4697045087814331e-01" nType="-99"/>
          </Node>
          <Node pos="r" depth="2" NCoef="0" IVar="8" Cut="8.9487302303314209e-01" cType="1" res="-2.7458319440484047e-02" rms="4.9336352944374084e-01" purity="4.5650172233581543e-01" nType="0">
            <Node pos="l" depth="3" NCoef="0" IVar="-1" Cut="0.0000000000000000e+00" cType="1" res="-1.8227713007945567e-04" rms="4.9579170346260071e-01" purity="4.8671582341194153e-01" nType="-99"/>
            <Node pos="r" depth="3" NCoef="0" IVar="-1" Cut="0.0000000000000000e+00" cType="1" res="-4.3112547136843204e-03" rms="4.7868493199348450e-01" purity="3.6906212568283081e-01" nType="-99"/>
          </Node>
        </Node>
        <Node pos="r" depth="1" NCoef="0" IVar="7" Cut="1.2000000000000000e+01" cType="1" res="-1.1472834646701813e-01" rms="4.6373015642166138e-01" purity="3.2557702064514160e-01" nType="0">
          <Node pos="l" depth="2" NCoef="0" IVar="-1" Cut="0.0000000000000000e+00" cType="1" res="-5.6550060398876667e-03" rms="4.8005166649818420e-01" purity="3.7765693664550781e-01" nType="-99"/>
          <Node pos="r" depth="2" NCoef="0" IVar="9" Cut="2.7271279692649841e-01" cType="1" res="-1.4009310305118561e-01" rms="4.5451092720031738e-01" purity="2.9863038659095764e-01" nType="0">
            <Node pos="l" depth="3" NCoef="0" IVar="-1" Cut="0.0000000000000000e+00" cType="1" res="-6.3014421612024307e-03" rms="4.7568312287330627e-01" purity="3.5339686274528503e-01" nType="-99"/>
            <Node pos="r" depth="3" NCoef="0" IVar="-1" Cut="0.0000000000000000e+00" cType="1" res="-5.2238637581467628e-03" rms="4.3799674510955811e-01" purity="2.6267606019973755e-01" nType="-99"/>
          </Node>
        </Node>
      </Node>
    </BinaryTree>
    <BinaryTree type="DecisionTree" boostWeight="1.0000000000000000e+00" itree="14">
      <Node pos="s" depth="0" NCoef="0" IVar="6" Cut="2.3475799560546875e+00" cType="1" res="-2.2205063141882420e-03" rms="4.8719370365142822e-01" purity="4.9776053428649902e-01" nType="0">
        <Node pos="l" depth="1" NCoef="0" IVar="1" Cut="1.0919569730758667e+00" cType="1" res="4.3439492583274841e-02" rms="4.8556587100028992e-01" purity="5.7148855924606323e-01" nType="0">
          <Node pos="l" depth="2" NCoef="0" IVar="9" Cut="-6.3562971353530884e-01" cType="1" res="9.8864227533340454e-02" rms="4.7248741984367371e-01" purity="6.4549714326858521e-01" nType="0">
            <Node pos="l" depth="3" NCoef="0" IVar="-1" Cut="0.0000000000000000e+00" cType="1" res="2.7818675152957439e-04" rms="4.9577528238296509e-01" purity="5.1301550865173340e-01" nType="-99"/>
            <Node pos="r" depth="3" NCoef="0" IVar="-1" Cut="0.0000000000000000e+00" cType="1" res="9.7146462649106979e-03" rms="4.6236068010330200e-01" purity="6.8230855464935303e-01" nType="-99"/>
          </Node>
          <Node pos="r" depth="2" NCoef="0" IVar="9" Cut="4.5172730088233948e-01" cType="1" res="-1.5172135084867477e-02" rms="4.9228107929229736e-01" purity="4.9322453141212463e-01" nType="0">
            <Node pos="l" depth="3" NCoef="0" IVar="-1" Cut="0.0000000000000000e+00" cType="1" res="1.5222767833620310e-03" rms="4.9296870827674866e-01" purity="5.3473198413848877e-01" nType="-99"/>
            <Node pos="r" depth="3" NCoef="0" IVar="-1" Cut="0.0000000000000000e+00" cType="1" res="-8.6838677525520325e-03" rms="4.8272037506103516e-01" purity="3.9805358648300171e-01" nType="-99"/>
          </Node>
        </Node>
        <Node pos="r" depth="1" NCoef="0" IVar="8" Cut="1.0019657611846924e+00" cType="1" res="-6.7289464175701141e-02" rms="4.8208847641944885e-01" purity="3.9269262552261353e-01" nType="0">
          <Node pos="l" depth="2" NCoef="0" IVar="8" Cut="-1.5603959560394287e+00" cType="1" res="-4.4929198920726776e-02" rms="4.8795837163925171e-01" purity="4.2008244991302490e-01" nType="0">
            <Node pos="l" depth="3" NCoef="0" IVar="-1" Cut="0.0000000000000000e+00" cType="1" res="-1.5418655239045620e-02" rms="4.6062523126602173e-01" purity="3.1932786107063293e-01" nType="-99"/>
            <Node pos="r" depth="3" NCoef="0" IVar="-1" Cut="0.0000000000000000e+00" cType="1" res="-2.2013613488525152e-03" rms="4.9335563182830811e-01" purity="4.5008805394172668e-01" nType="-99"/>
          </Node>
          <Node pos="r" depth="2" NCoef="0" IVar="9" Cut="4.5454224944114685e-01" cType="1" res="-1.3131301105022430e-01" rms="4.5888444781303406e-01" purity="3.1426808238029480e-01" nType="0">
            <Node pos="l" depth="3" NCoef="0" IVar="-1" Cut="0.0000000000000000e+00" cType="1" res="-1.5286313369870186e-02" rms="4.6904355287551880e-01" purity="3.3535045385360718e-01" nType="-99"/>
            <Node pos="r" depth="3" NCoef="0" IVar="-1" Cut="0.0000000000000000e+00" cType="1" res="-4.4966568239033222e-03" rms="4.4951811432838440e-01" purity="2.9537191987037659e-01" nType="-99"/>
          </Node>
        </Node>
      </Node>
    </BinaryTree>
    <BinaryTree type="DecisionTree" boostWeight="1.0000000000000000e+00" itree="15">
      <Node pos="s" depth="0" NCoef="0" IVar="1" Cut="1.4135808944702148e+00" cType="1" res="1.4530495973303914e-03" rms="4.8627904057502747e-01" purity="5.0070840120315552e-01" nType="0">
        <Node pos="l" depth="1" NCoef="0" IVar="6" Cut="1.6359913349151611e+00" cType="1" res="5.1320917904376984e-02" rms="4.8423343896865845e-01" purity="5.8040064573287964e-01" nType="0">
          <Node pos="l" depth="2" NCoef="0" IVar="8" Cut="-4.6747615933418274e-01" cType="1" res="1.2050151824951172e-01" rms="4.5917668938636780e-01" purity="6.8879085779190063e-01" nType="0">
            <Node pos="l" depth="3" NCoef="0" IVar="-1" Cut="0.0000000000000000e+00" cType="1" res="3.6736975889652967e-03" rms="4.8040902614593506e-01" purity="6.2251079082489014e-01" nType="-99"/>
            <Node pos="r" depth="3" NCoef="0" IVar="-1" Cut="0.0000000000000000e+00" cType="1" res="9.4065815210342407e-03" rms="4.4700649380683899e-01" purity="7.1878921985626221e-01" nType="-99"/>
          </Node>
          <Node pos="r" depth="2" NCoef="0" IVar="5" Cut="1.7113684415817261e+00" cType="1" res="1.1184603907167912e-02" rms="4.9377009272575378e-01" purity="5.1751619577407837e-01" nType="0">
            <Node pos="l" depth="3" NCoef="0" IVar="-1" Cut="0.0000000000000000e+00" cType="1" res="3.9569144137203693e-03" rms="4.9368825554847717e-01" purity="5.5830132961273193e-01" nType="-99"/>
            <Node pos="r" depth="3" NCoef="0" IVar="-1" Cut="0.0000000000000000e+00" cType="1" res="-6.2052588909864426e-03" rms="4.8368465900421143e-01" purity="3.8618251681327820e-01" nType="-99"/>
          </Node>
        </Node>
        <Node pos="r" depth="1" NCoef="0" IVar="9" Cut="8.1816887855529785e-01" cType="1" res="-5.9028811752796173e-02" rms="4.8187237977981567e-01" purity="4.0405434370040894e-01" nType="0">
          <Node pos="l" depth="2" NCoef="0" IVar="5" Cut="2.5218560695648193e+00" cType="1" res="-3.5068251192569733e-02" rms="4.9141269922256470e-01" purity="4.4328224658966064e-01" nType="0">
            <Node pos="l" depth="3" NCoef="0" IVar="-1" Cut="0.0000000000000000e+00" cType="1" res="-1.9600789528340101e-03" rms="4.9468094110488892e-01" purity="4.6746298670768738e-01" nType="-99"/>
            <Node pos="r" depth="3" NCoef="0" IVar="-1" Cut="0.0000000000000000e+00" cType="1" res="-6.3473079353570938e-03" rms="4.6519586443901062e-01" purity="3.1889519095420837e-01" nType="-99"/>
          </Node>
          <Node pos="r" depth="2" NCoef="0" IVar="-1" Cut="0.0000000000000000e+00" cType="1" res="-6.2079466879367828e-03" rms="4.2246204614639282e-01" purity="2.3348116874694824e-01" nType="-99"/>
        </Node>
      </Node>
    </BinaryTree>
    <BinaryTree type="DecisionTree" boostWeight="1.0000000000000000e+00" itree="16">
      <Node pos="s" depth="0" NCoef="0" IVar="9" Cut="8.1816208362579346e-01" cType="1" res="-5.7739164913073182e-04" rms="4.8635682463645935e-01" purity="4.9961066246032715e-01" nType="0">
        <Node pos="l" depth="1" NCoef="0" IVar="5" Cut="2.0561277866363525e+00" cType="1" res="1.6125300899147987e-02" rms="4.8901897668838501e-01" purity="5.2612161636352539e-01" nType="0">
          <Node pos="l" depth="2" NCoef="0" IVar="8" Cut="-1.4401029348373413e+00" cType="1" res="3.7970792502164841e-02" rms="4.8848891258239746e-01" purity="5.6184482574462891e-01" nType="0">
            <Node pos="l" depth="3" NCoef="0" IVar="-1" Cut="0.0000000000000000e+00" cType="1" res="-7.3076616972684860e-03" rms="4.8781600594520569e-01" purity="4.0485781431198120e-01" nType="-99"/>
            <Node pos="r" depth="3" NCoef="0" IVar="-1" Cut="0.0000000000000000e+00" cType="1" res="4.0103029459714890e-03" rms="4.8670175671577454e-01" purity="5.7879185676574707e-01" nType="-99"/>
          </Node>
          <Node pos="r" depth="2" NCoef="0" IVar="9" Cut="-8.3468085527420044e-01" cType="1" res="-7.8764915466308594e-02" rms="4.7990953922271729e-01" purity="3.7095096707344055e-01" nType="0">
            <Node pos="l" depth="3" NCoef="0" IVar="-1" Cut="0.0000000000000000e+00" cType="1" res="-1.5739085152745247e-02" rms="4.5656138658523560e-01" purity="2.9899647831916809e-01" nType="-99"/>
            <Node pos="r" depth="3" NCoef="0" IVar="-1" Cut="0.0000000000000000e+00" cType="1" res="-6.2173251062631607e-03" rms="4.8735150694847107e-01" purity="4.0176200866699219e-01" nType="-99"/>
          </Node>
        </Node>
        <Node pos="r" depth="1" NCoef="0" IVar="-1" Cut="0.0000000000000000e+00" cType="1" res="-7.4861263856291771e-03" rms="4.3628546595573425e-01" purity="2.6874414086341858e-01" nType="-99"/>
      </Node>
    </BinaryTree>
    <BinaryTree type="DecisionTree" boostWeight="1.0000000000000000e+00" itree="17">
      <Node pos="s" depth="0" NCoef="0" IVar="6" Cut="1.9839724302291870e+00" cType="1" res="1.0813501430675387e-03" rms="4.8539462685585022e-01" purity="5.0067859888076782e-01" nType="0">
        <Node pos="l" depth="1" NCoef="0" IVar="1" Cut="9.0213322639465332e-01" cType="1" res="6.1461254954338074e-02" rms="4.7864061594009399e-01" purity="6.0925263166427612e-01" nType="0">
          <Node pos="l" depth="2" NCoef="0" IVar="5" Cut="9.6910649538040161e-01" cType="1" res="1.1863987147808075e-01" rms="4.5920294523239136e-01" purity="6.8570625782012939e-01" nType="0">
            <Node pos="l" depth="3" NCoef="0" IVar="-1" Cut="0.0000000000000000e+00" cType="1" res="9.9845184013247490e-03" rms="4.4957447052001953e-01" purity="7.1247577667236328e-01" nType="-99"/>
            <Node pos="r" depth="3" NCoef="0" IVar="-1" Cut="0.0000000000000000e+00" cType="1" res="5.1318667829036713e-03" rms="4.7638908028602600e-01" purity="6.2998825311660767e-01" nType="-99"/>
          </Node>
          <Node pos="r" depth="2" NCoef="0" IVar="8" Cut="6.0721957683563232e-01" cType="1" res="1.4060054905712605e-02" rms="4.8913386464118958e-01" purity="5.4587244987487793e-01" nType="0">
            <Node pos="l" depth="3" NCoef="0" IVar="-1" Cut="0.0000000000000000e+00" cType="1" res="5.9365378692746162e-03" rms="4.8414242267608643e-01" purity="5.8410942554473877e-01" nType="-99"/>
            <Node pos="r" depth="3" NCoef="0" IVar="-1" Cut="0.0000000000000000e+00" cType="1" res="-3.7205982953310013e-03" rms="4.9137830734252930e-01" purity="4.5241689682006836e-01" nType="-99"/>
          </Node>
        </Node>
        <Node pos="r" depth="1" NCoef="0" IVar="3" Cut="8.6453231811523438e+01" cType="1" res="-4.3577380478382111e-02" rms="4.8552328348159790e-01" purity="4.2037403583526611e-01" nType="0">
          <Node pos="l" depth="2" NCoef="0" IVar="-1" Cut="0.0000000000000000e+00" cType="1" res="-9.1946600005030632e-03" rms="4.5566737651824951e-01" purity="3.0820226669311523e-01" nType="-99"/>
          <Node pos="r" depth="2" NCoef="0" IVar="9" Cut="8.1816542148590088e-01" cType="1" res="-3.0964339151978493e-02" rms="4.8745319247245789e-01" purity="4.3380761146545410e-01" nType="0">
            <Node pos="l" depth="3" NCoef="0" IVar="-1" Cut="0.0000000000000000e+00" cType="1" res="-1.2533104745671153e-03" rms="4.9343037605285645e-01" purity="4.6321681141853333e-01" nType="-99"/>
            <Node pos="r" depth="3" NCoef="0" IVar="-1" Cut="0.0000000000000000e+00" cType="1" res="-6.8665375001728535e-03" rms="4.4182905554771423e-01" purity="2.7528408169746399e-01" nType="-99"/>
          </Node>
        </Node>
      </Node>
    </BinaryTree>
    <BinaryTree type="DecisionTree" boostWeight="1.0000000000000000e+00" itree="18">
      <Node pos="s" depth="0" NCoef="0" IVar="9" Cut="4.5451584458351135e-01" cType="1" res="3.4957560710608959e-03" rms="4.8567166924476624e-01" purity="5.0379705429077148e-01" nType="0">
        <Node pos="l" depth="1" NCoef="0" IVar="5" Cut="2.0561892986297607e+00" cType="1" res="3.4060083329677582e-02" rms="4.8583430051803589e-01" purity="5.4904115200042725e-01" nType="0">
          <Node pos="l" depth="2" NCoef="0" IVar="3" Cut="9.3718643188476562e+01" cType="1" res="5.9802204370498657e-02" rms="4.8347401618957520e-01" purity="5.9369522333145142e-01" nType="0">
            <Node pos="l" depth="3" NCoef="0" IVar="-1" Cut="0.0000000000000000e+00" cType="1" res="5.9081674553453922e-03" rms="4.8028606176376343e-01" purity="6.0877776145935059e-01" nType="-99"/>
            <Node pos="r" depth="3" NCoef="0" IVar="-1" Cut="0.0000000000000000e+00" cType="1" res="-2.7160281315445900e-03" rms="4.9315720796585083e-01" purity="5.0604581832885742e-01" nType="-99"/>
          </Node>
          <Node pos="r" depth="2" NCoef="0" IVar="5" Cut="2.5546591281890869e+00" cType="1" res="-6.1034470796585083e-02" rms="4.8269620537757874e-01" purity="3.8408339023590088e-01" nType="0">
            <Node pos="l" depth="3" NCoef="0" IVar="-1" Cut="0.0000000000000000e+00" cType="1" res="-2.4205539375543594e-03" rms="4.9345812201499939e-01" purity="4.3906176090240479e-01" nType="-99"/>
            <Node pos="r" depth="3" NCoef="0" IVar="-1" Cut="0.0000000000000000e+00" cType="1" res="-6.5705738961696625e-03" rms="4.6421322226524353e-01" purity="3.1671470403671265e-01" nType="-99"/>
          </Node>
        </Node>
        <Node pos="r" depth="1" NCoef="0" IVar="9" Cut="9.0077328681945801e-01" cType="1" res="-7.8782141208648682e-02" rms="4.7557044029235840e-01" purity="3.8200193643569946e-01" nType="0">
          <Node pos="l" depth="2" NCoef="0" IVar="7" Cut="1.2000000000000000e+01" cType="1" res="-5.3141541779041290e-02" rms="4.7902792692184448e-01" purity="4.2176717519760132e-01" nType="0">
            <Node pos="l" depth="3" NCoef="0" IVar="-1" Cut="0.0000000000000000e+00" cType="1" res="-1.3636829098686576e-03" rms="4.9385723471641541e-01" purity="4.7038710117340088e-01" nType="-99"/>
            <Node pos="r" depth="3" NCoef="0" IVar="-1" Cut="0.0000000000000000e+00" cType="1" res="-4.8242532648146152e-03" rms="4.8089393973350525e-01" purity="3.9211294054985046e-01" nType="-99"/>
          </Node>
          <Node pos="r" depth="2" NCoef="0" IVar="-1" Cut="0.0000000000000000e+00" cType="1" res="-7.6132290996611118e-03" rms="4.2208760976791382e-01" purity="2.3995092511177063e-01" nType="-99"/>
        </Node>
      </Node>
    </BinaryTree>
    <BinaryTree type="DecisionTree" boostWeight="1.0000000000000000e+00" itree="19">
      <Node pos="s" depth="0" NCoef="0" IVar="9" Cut="8.1816482543945312e-01" cType="1" res="-3.6877498496323824e-03" rms="4.8564368486404419e-01" purity="4.9683573842048645e-01" nType="0">
        <Node pos="l" depth="1" NCoef="0" IVar="9" Cut="-6.6938936710357666e-01" cType="1" res="1.1395316570997238e-02" rms="4.8840045928955078e-01" purity="5.2274960279464722e-01" nType="0">
          <Node pos="l" depth="2" NCoef="0" IVar="9" Cut="-8.4972691535949707e-01" cType="1" res="-7.7882945537567139e-02" rms="4.8574152588844299e-01" purity="3.9722308516502380e-01" nType="0">
            <Node pos="l" depth="3" NCoef="0" IVar="-1" Cut="0.0000000000000000e+00" cType="1" res="-8.2423258572816849e-03" rms="4.6967250108718872e-01" purity="3.3613082766532898e-01" nType="-99"/>
            <Node pos="r" depth="3" NCoef="0" IVar="-1" Cut="0.0000000000000000e+00" cType="1" res="-1.6537391347810626e-03" rms="4.9600866436958313e-01" purity="4.5079940557479858e-01" nType="-99"/>
          </Node>
          <Node pos="r" depth="2" NCoef="0" IVar="1" Cut="2.0091316699981689e+00" cType="1" res="3.3292036503553391e-02" rms="4.8655515909194946e-01" purity="5.5353665351867676e-01" nType="0">
            <Node pos="l" depth="3" NCoef="0" IVar="-1" Cut="0.0000000000000000e+00" cType="1" res="4.8369397409260273e-03" rms="4.8365220427513123e-01" purity="5.9413635730743408e-01" nType="-99"/>
            <Node pos="r" depth="3" NCoef="0" IVar="-1" Cut="0.0000000000000000e+00" cType="1" res="-3.6612220574170351e-03" rms="4.8644211888313293e-01" purity="3.9675122499465942e-01" nType="-99"/>
          </Node>
        </Node>
        <Node pos="r" depth="1" NCoef="0" IVar="-1" Cut="0.0000000000000000e+00" cType="1" res="-6.0896170325577259e-03" rms="4.3832096457481384e-01" purity="2.6701810956001282e-01" nType="-99"/>
      </Node>
    </BinaryTree>
    <BinaryTree type="DecisionTree" boostWeight="1.0000000000000000e+00" itree="20">
      <Node pos="s" depth="0" NCoef="0" IVar="1" Cut="1.4135392904281616e+00" cType="1" res="-6.5798885188996792e-03" rms="4.8473438620567322e-01" purity="4.9473395943641663e-01" nType="0">
        <Node pos="l" depth="1" NCoef="0" IVar="9" Cut="-6.3636410236358643e-01" cType="1" res="3.4634605050086975e-02" rms="4.8472425341606140e-01" purity="5.7004618644714355e-01" nType="0">
          <Node pos="l" depth="2" NCoef="0" IVar="9" Cut="-8.3471459150314331e-01" cType="1" res="-6.5315909683704376e-02" rms="4.8921748995780945e-01" purity="4.2676284909248352e-01" nType="0">
            <Node pos="l" depth="3" NCoef="0" IVar="-1" Cut="0.0000000000000000e+00" cType="1" res="-5.8098174631595612e-03" rms="4.7335556149482727e-01" purity="3.6013206839561462e-01" nType="-99"/>
            <Node pos="r" depth="3" NCoef="0" IVar="-1" Cut="0.0000000000000000e+00" cType="1" res="-1.3855812139809132e-03" rms="4.9781247973442078e-01" purity="4.7664400935173035e-01" nType="-99"/>
          </Node>
          <Node pos="r" depth="2" NCoef="0" IVar="6" Cut="2.1937863826751709e+00" cType="1" res="6.6597476601600647e-02" rms="4.7889646887779236e-01" purity="6.1586630344390869e-01" nType="0">
            <Node pos="l" depth="3" NCoef="0" IVar="-1" Cut="0.0000000000000000e+00" cType="1" res="8.8883209973573685e-03" rms="4.6717363595962524e-01" purity="6.6831809282302856e-01" nType="-99"/>
            <Node pos="r" depth="3" NCoef="0" IVar="-1" Cut="0.0000000000000000e+00" cType="1" res="1.1159576242789626e-03" rms="4.9692723155021667e-01" purity="5.1479017734527588e-01" nType="-99"/>
          </Node>
        </Node>
        <Node pos="r" depth="1" NCoef="0" IVar="9" Cut="6.3635468482971191e-01" cType="1" res="-5.7434916496276855e-02" rms="4.7989305853843689e-01" purity="4.0180543065071106e-01" nType="0">
          <Node pos="l" depth="2" NCoef="0" IVar="9" Cut="-7.0245307683944702e-01" cType="1" res="-2.9612470418214798e-02" rms="4.8959922790527344e-01" purity="4.4831106066703796e-01" nType="0">
            <Node pos="l" depth="3" NCoef="0" IVar="-1" Cut="0.0000000000000000e+00" cType="1" res="-6.7543527111411095e-03" rms="4.5824548602104187e-01" purity="3.0376195907592773e-01" nType="-99"/>
            <Node pos="r" depth="3" NCoef="0" IVar="-1" Cut="0.0000000000000000e+00" cType="1" res="-7.9844659194350243e-04" rms="4.9325412511825562e-01" purity="4.7854152321815491e-01" nType="-99"/>
          </Node>
          <Node pos="r" depth="2" NCoef="0" IVar="9" Cut="8.6775869131088257e-01" cType="1" res="-1.2155649811029434e-01" rms="4.5023846626281738e-01" purity="2.9462528228759766e-01" nType="0">
            <Node pos="l" depth="3" NCoef="0" IVar="-1" Cut="0.0000000000000000e+00" cType="1" res="-1.0461403056979179e-02" rms="4.7748625278472900e-01" purity="3.5984119772911072e-01" nType="-99"/>
            <Node pos="r" depth="3" NCoef="0" IVar="-1" Cut="0.0000000000000000e+00" cType="1" res="-2.4965830147266388e-02" rms="4.0919035673141479e-01" purity="2.1250963211059570e-01" nType="-99"/>
          </Node>
        </Node>
      </Node>
    </BinaryTree>
    <BinaryTree type="DecisionTree" boostWeight="1.0000000000000000e+00" itree="21">
      <Node pos="s" depth="0" NCoef="0" IVar="8" Cut="-2.2195296287536621e+00" cType="1" res="-4.4749421067535877e-03" rms="4.8480510711669922e-01" purity="4.9608808755874634e-01" nType="0">
        <Node pos="l" depth="1" NCoef="0" IVar="-1" Cut="0.0000000000000000e+00" cType="1" res="-2.3260472342371941e-02" rms="4.2881849408149719e-01" purity="2.4848312139511108e-01" nType="-99"/>
        <Node pos="r" depth="1" NCoef="0" IVar="8" Cut="1.0572100877761841e+00" cType="1" res="6.5379925072193146e-03" rms="4.8622390627861023e-01" purity="5.1230710744857788e-01" nType="0">
          <Node pos="l" depth="2" NCoef="0" IVar="1" Cut="1.5970839262008667e+00" cType="1" res="3.1774487346410751e-02" rms="4.8627641797065735e-01" purity="5.4813385009765625e-01" nType="0">
            <Node pos="l" depth="3" NCoef="0" IVar="-1" Cut="0.0000000000000000e+00" cType="1" res="5.0173886120319366e-03" rms="4.8217877745628357e-01" purity="6.0463744401931763e-01" nType="-99"/>
            <Node pos="r" depth="3" NCoef="0" IVar="-1" Cut="0.0000000000000000e+00" cType="1" res="-1.5062998281791806e-03" rms="4.8977401852607727e-01" purity="4.4297114014625549e-01" nType="-99"/>
          </Node>
          <Node pos="r" depth="2" NCoef="0" IVar="8" Cut="1.8516460657119751e+00" cType="1" res="-8.7479822337627411e-02" rms="4.7435367107391357e-01" purity="3.7883594632148743e-01" nType="0">
            <Node pos="l" depth="3" NCoef="0" IVar="-1" Cut="0.0000000000000000e+00" cType="1" res="-2.3128066677600145e-03" rms="4.8849430680274963e-01" purity="4.4944676756858826e-01" nType="-99"/>
            <Node pos="r" depth="3" NCoef="0" IVar="-1" Cut="0.0000000000000000e+00" cType="1" res="-1.5718765556812286e-02" rms="4.4847860932350159e-01" purity="2.8823548555374146e-01" nType="-99"/>
          </Node>
        </Node>
      </Node>
    </BinaryTree>
    <BinaryTree type="DecisionTree" boostWeight="1.0000000000000000e+00" itree="22">
      <Node pos="s" depth="0" NCoef="0" IVar="8" Cut="1.5955574512481689e+00" cType="1" res="-2.7476291870698333e-04" rms="4.8333838582038879e-01" purity="4.9942907691001892e-01" nType="0">
        <Node pos="l" depth="1" NCoef="0" IVar="8" Cut="-1.8412858247756958e+00" cType="1" res="1.6804471611976624e-02" rms="4.8476707935333252e-01" purity="5.2495026588439941e-01" nType="0">
          <Node pos="l" depth="2" NCoef="0" IVar="-1" Cut="0.0000000000000000e+00" cType="1" res="-1.0321072302758694e-02" rms="4.5399147272109985e-01" purity="3.0607223510742188e-01" nType="-99"/>
          <Node pos="r" depth="2" NCoef="0" IVar="6" Cut="1.8974559307098389e+00" cType="1" res="3.2764300704002380e-02" rms="4.8563700914382935e-01" purity="5.5008208751678467e-01" nType="0">
            <Node pos="l" depth="3" NCoef="0" IVar="-1" Cut="0.0000000000000000e+00" cType="1" res="8.4486193954944611e-03" rms="4.7005459666252136e-01" purity="6.5342253446578979e-01" nType="-99"/>
            <Node pos="r" depth="3" NCoef="0" IVar="-1" Cut="0.0000000000000000e+00" cType="1" res="-6.6865736152976751e-04" rms="4.9320766329765320e-01" purity="4.7188463807106018e-01" nType="-99"/>
          </Node>
        </Node>
        <Node pos="r" depth="1" NCoef="0" IVar="8" Cut="2.3115396499633789e+00" cType="1" res="-1.3395865261554718e-01" rms="4.5015019178390503e-01" purity="2.9966726899147034e-01" nType="0">
          <Node pos="l" depth="2" NCoef="0" IVar="-1" Cut="0.0000000000000000e+00" cType="1" res="-5.3401617333292961e-03" rms="4.7578451037406921e-01" purity="3.6790969967842102e-01" nType="-99"/>
          <Node pos="r" depth="2" NCoef="0" IVar="-1" Cut="0.0000000000000000e+00" cType="1" res="-1.8179219216108322e-02" rms="4.1828691959381104e-01" purity="2.3206354677677155e-01" nType="-99"/>
        </Node>
      </Node>
    </BinaryTree>
    <BinaryTree type="DecisionTree" boostWeight="1.0000000000000000e+00" itree="23">
      <Node pos="s" depth="0" NCoef="0" IVar="6" Cut="1.5942052602767944e+00" cType="1" res="4.3573388829827309e-03" rms="4.8298558592796326e-01" purity="5.0502157211303711e-01" nType="0">
        <Node pos="l" depth="1" NCoef="0" IVar="8" Cut="-6.2313586473464966e-01" cType="1" res="7.4076659977436066e-02" rms="4.6811059117317200e-01" purity="6.4443272352218628e-01" nType="0">
          <Node pos="l" depth="2" NCoef="0" IVar="-1" Cut="0.0000000000000000e+00" cType="1" res="1.0731966176535934e-04" rms="4.8684683442115784e-01" purity="5.5005311965942383e-01" nType="-99"/>
          <Node pos="r" depth="2" NCoef="0" IVar="8" Cut="4.0327465534210205e-01" cType="1" res="9.8373830318450928e-02" rms="4.5909285545349121e-01" purity="6.7615991830825806e-01" nType="0">
            <Node pos="l" depth="3" NCoef="0" IVar="-1" Cut="0.0000000000000000e+00" cType="1" res="1.1779014952480793e-02" rms="4.4188514351844788e-01" purity="7.2729605436325073e-01" nType="-99"/>
            <Node pos="r" depth="3" NCoef="0" IVar="-1" Cut="0.0000000000000000e+00" cType="1" res="4.3809413909912109e-03" rms="4.7467461228370667e-01" purity="6.1484974622726440e-01" nType="-99"/>
          </Node>
        </Node>
        <Node pos="r" depth="1" NCoef="0" IVar="3" Cut="9.5546249389648438e+01" cType="1" res="-2.1244006231427193e-02" rms="4.8582899570465088e-01" purity="4.5382899045944214e-01" nType="0">
          <Node pos="l" depth="2" NCoef="0" IVar="5" Cut="2.0561277866363525e+00" cType="1" res="-9.1232974082231522e-03" rms="4.8649021983146667e-01" purity="4.6616297960281372e-01" nType="0">
            <Node pos="l" depth="3" NCoef="0" IVar="-1" Cut="0.0000000000000000e+00" cType="1" res="7.3834834620356560e-04" rms="4.8865634202957153e-01" purity="4.9976640939712524e-01" nType="-99"/>
            <Node pos="r" depth="3" NCoef="0" IVar="-1" Cut="0.0000000000000000e+00" cType="1" res="-8.7921358644962311e-03" rms="4.7416126728057861e-01" purity="3.5460999608039856e-01" nType="-99"/>
          </Node>
          <Node pos="r" depth="2" NCoef="0" IVar="-1" Cut="0.0000000000000000e+00" cType="1" res="-2.0797394216060638e-02" rms="4.5389392971992493e-01" purity="3.0761078000068665e-01" nType="-99"/>
        </Node>
      </Node>
    </BinaryTree>
    <BinaryTree type="DecisionTree" boostWeight="1.0000000000000000e+00" itree="24">
      <Node pos="s" depth="0" NCoef="0" IVar="1" Cut="1.9820637702941895e+00" cType="1" res="2.7308671269565821e-03" rms="4.8261421918869019e-01" purity="5.0334644317626953e-01" nType="0">
        <Node pos="l" depth="1" NCoef="0" IVar="6" Cut="1.5954953432083130e+00" cType="1" res="2.7649633586406708e-02" rms="4.8408055305480957e-01" purity="5.5349129438400269e-01" nType="0">
          <Node pos="l" depth="2" NCoef="0" IVar="8" Cut="-4.0147501230239868e-01" cType="1" res="7.9471543431282043e-02" rms="4.6559813618659973e-01" purity="6.6174423694610596e-01" nType="0">
            <Node pos="l" depth="3" NCoef="0" IVar="-1" Cut="0.0000000000000000e+00" cType="1" res="1.2382337590679526e-03" rms="4.8244568705558777e-01" purity="5.9242457151412964e-01" nType="-99"/>
            <Node pos="r" depth="3" NCoef="0" IVar="-1" Cut="0.0000000000000000e+00" cType="1" res="1.0433656163513660e-02" rms="4.5422086119651794e-01" purity="6.9673526287078857e-01" nType="-99"/>
          </Node>
          <Node pos="r" depth="2" NCoef="0" IVar="5" Cut="1.1514399051666260e+00" cType="1" res="2.8487506788223982e-03" rms="4.9074828624725342e-01" purity="5.0168371200561523e-01" nType="0">
            <Node pos="l" depth="3" NCoef="0" IVar="-1" Cut="0.0000000000000000e+00" cType="1" res="3.8687738124281168e-03" rms="4.9040818214416504e-01" purity="5.5701971054077148e-01" nType="-99"/>
            <Node pos="r" depth="3" NCoef="0" IVar="-1" Cut="0.0000000000000000e+00" cType="1" res="-3.2863863743841648e-03" rms="4.8897665739059448e-01" purity="4.4727280735969543e-01" nType="-99"/>
          </Node>
        </Node>
        <Node pos="r" depth="1" NCoef="0" IVar="9" Cut="4.5450481772422791e-01" cType="1" res="-7.4448481202125549e-02" rms="4.6973007917404175e-01" purity="3.4803590178489685e-01" nType="0">
          <Node pos="l" depth="2" NCoef="0" IVar="9" Cut="-7.4542917311191559e-02" cType="1" res="-5.0573509186506271e-02" rms="4.8538950085639954e-01" purity="3.9703604578971863e-01" nType="0">
            <Node pos="l" depth="3" NCoef="0" IVar="-1" Cut="0.0000000000000000e+00" cType="1" res="-5.3331069648265839e-03" rms="4.8002961277961731e-01" purity="3.6843231320381165e-01" nType="-99"/>
            <Node pos="r" depth="3" NCoef="0" IVar="-1" Cut="0.0000000000000000e+00" cType="1" res="-3.5578228998929262e-03" rms="4.9166688323020935e-01" purity="4.3629989027976990e-01" nType="-99"/>
          </Node>
          <Node pos="r" depth="2" NCoef="0" IVar="6" Cut="2.6586883068084717e+00" cType="1" res="-9.8883017897605896e-02" rms="4.5183929800987244e-01" purity="2.9788732528686523e-01" nType="0">
            <Node pos="l" depth="3" NCoef="0" IVar="-1" Cut="0.0000000000000000e+00" cType="1" res="-9.3796383589506149e-03" rms="4.4548892974853516e-01" purity="2.9080188274383545e-01" nType="-99"/>
            <Node pos="r" depth="3" NCoef="0" IVar="-1" Cut="0.0000000000000000e+00" cType="1" res="-4.9065179191529751e-03" rms="4.5592647790908813e-01" purity="3.0398955941200256e-01" nType="-99"/>
          </Node>
        </Node>
      </Node>
    </BinaryTree>
    <BinaryTree type="DecisionTree" boostWeight="1.0000000000000000e+00" itree="25">
      <Node pos="s" depth="0" NCoef="0" IVar="9" Cut="6.3634657859802246e-01" cType="1" res="9.2515675351023674e-03" rms="4.8097267746925354e-01" purity="5.0985288619995117e-01" nType="0">
        <Node pos="l" depth="1" NCoef="0" IVar="5" Cut="1.6941378116607666e+00" cType="1" res="3.1213270500302315e-02" rms="4.8266929388046265e-01" purity="5.4928106069564819e-01" nType="0">
          <Node pos="l" depth="2" NCoef="0" IVar="8" Cut="-1.2520155906677246e+00" cType="1" res="6.2065124511718750e-02" rms="4.7853505611419678e-01" purity="6.1020827293395996e-01" nType="0">
            <Node pos="l" depth="3" NCoef="0" IVar="-1" Cut="0.0000000000000000e+00" cType="1" res="-4.7890408895909786e-03" rms="4.9442282319068909e-01" purity="4.5406591892242432e-01" nType="-99"/>
            <Node pos="r" depth="3" NCoef="0" IVar="-1" Cut="0.0000000000000000e+00" cType="1" res="5.8014001697301865e-03" rms="4.7502416372299194e-01" purity="6.2801796197891235e-01" nType="-99"/>
          </Node>
          <Node pos="r" depth="2" NCoef="0" IVar="7" Cut="1.2000000000000000e+01" cType="1" res="-3.3781033009290695e-02" rms="4.8360431194305420e-01" purity="4.2009007930755615e-01" nType="0">
            <Node pos="l" depth="3" NCoef="0" IVar="-1" Cut="0.0000000000000000e+00" cType="1" res="2.2246551234275103e-03" rms="4.9191537499427795e-01" purity="4.8282909393310547e-01" nType="-99"/>
            <Node pos="r" depth="3" NCoef="0" IVar="-1" Cut="0.0000000000000000e+00" cType="1" res="-4.5429700985550880e-03" rms="4.7930580377578735e-01" purity="3.8967955112457275e-01" nType="-99"/>
          </Node>
        </Node>
        <Node pos="r" depth="1" NCoef="0" IVar="9" Cut="8.0166816711425781e-01" cType="1" res="-8.5906699299812317e-02" rms="4.6163377165794373e-01" purity="3.3901405334472656e-01" nType="0">
          <Node pos="l" depth="2" NCoef="0" IVar="-1" Cut="0.0000000000000000e+00" cType="1" res="-4.1145454160869122e-03" rms="4.8974075913429260e-01" purity="4.3305209279060364e-01" nType="-99"/>
          <Node pos="r" depth="2" NCoef="0" IVar="4" Cut="3.3200992584228516e+01" cType="1" res="-1.1356545239686966e-01" rms="4.3931695818901062e-01" purity="2.7494475245475769e-01" nType="0">
            <Node pos="l" depth="3" NCoef="0" IVar="-1" Cut="0.0000000000000000e+00" cType="1" res="-2.5533130392432213e-03" rms="4.4393369555473328e-01" purity="2.7955681085586548e-01" nType="-99"/>
            <Node pos="r" depth="3" NCoef="0" IVar="-1" Cut="0.0000000000000000e+00" cType="1" res="-1.7256995663046837e-02" rms="4.3262067437171936e-01" purity="2.6977956295013428e-01" nType="-99"/>
          </Node>
        </Node>
      </Node>
    </BinaryTree>
    <BinaryTree type="DecisionTree" boostWeight="1.0000000000000000e+00" itree="26">
      <Node pos="s" depth="0" NCoef="0" IVar="6" Cut="1.6107792854309082e+00" cType="1" res="-2.0175716781523079e-04" rms="4.8225820064544678e-01" purity="4.9973207712173462e-01" nType="0">
        <Node pos="l" depth="1" NCoef="0" IVar="9" Cut="2.7179962396621704e-01" cType="1" res="6.4373441040515900e-02" rms="4.6926170587539673e-01" purity="6.4264261722564697e-01" nType="0">
          <Node pos="l" depth="2" NCoef="0" IVar="0" Cut="1.3789868164062500e+02" cType="1" res="8.4764569997787476e-02" rms="4.6322265267372131e-01" purity="6.7064857482910156e-01" nType="0">
            <Node pos="l" depth="3" NCoef="0" IVar="-1" Cut="0.0000000000000000e+00" cType="1" res="3.5293279215693474e-03" rms="4.7884786128997803e-01" purity="6.1948221921920776e-01" nType="-99"/>
            <Node pos="r" depth="3" NCoef="0" IVar="-1" Cut="0.0000000000000000e+00" cType="1" res="9.6096191555261612e-03" rms="4.4142353534698486e-01" purity="7.2793841361999512e-01" nType="-99"/>
          </Node>
          <Node pos="r" depth="2" NCoef="0" IVar="-1" Cut="0.0000000000000000e+00" cType="1" res="-9.9110271548852324e-05" rms="4.8231029510498047e-01" purity="5.5319023132324219e-01" nType="-99"/>
        </Node>
        <Node pos="r" depth="1" NCoef="0" IVar="3" Cut="9.5544761657714844e+01" cType="1" res="-2.3258605971932411e-02" rms="4.8473492264747620e-01" purity="4.4870528578758240e-01" nType="0">
          <Node pos="l" depth="2" NCoef="0" IVar="3" Cut="8.6288978576660156e+01" cType="1" res="-1.2691337615251541e-02" rms="4.8565670847892761e-01" purity="4.6012663841247559e-01" nType="0">
            <Node pos="l" depth="3" NCoef="0" IVar="-1" Cut="0.0000000000000000e+00" cType="1" res="-8.7506650015711784e-03" rms="4.6031290292739868e-01" purity="3.3247572183609009e-01" nType="-99"/>
            <Node pos="r" depth="3" NCoef="0" IVar="-1" Cut="0.0000000000000000e+00" cType="1" res="1.2517216964624822e-04" rms="4.8665112257003784e-01" purity="4.7512188553810120e-01" nType="-99"/>
          </Node>
          <Node pos="r" depth="2" NCoef="0" IVar="-1" Cut="0.0000000000000000e+00" cType="1" res="-7.2753368876874447e-03" rms="4.5344385504722595e-01" purity="3.0795887112617493e-01" nType="-99"/>
        </Node>
      </Node>
    </BinaryTree>
    <BinaryTree type="DecisionTree" boostWeight="1.0000000000000000e+00" itree="27">
      <Node pos="s" depth="0" NCoef="0" IVar="1" Cut="1.4136047363281250e+00" cType="1" res="-3.3552546519786119e-03" rms="4.8095482587814331e-01" purity="4.9754759669303894e-01" nType="0">
        <Node pos="l" depth="1" NCoef="0" IVar="5" Cut="1.6278980970382690e+00" cType="1" res="3.4560386091470718e-02" rms="4.8063933849334717e-01" purity="5.7804626226425171e-01" nType="0">
          <Node pos="l" depth="2" NCoef="0" IVar="6" Cut="2.1945166587829590e+00" cType="1" res="5.6894805282354355e-02" rms="4.7778972983360291e-01" purity="6.1923664808273315e-01" nType="0">
            <Node pos="l" depth="3" NCoef="0" IVar="-1" Cut="0.0000000000000000e+00" cType="1" res="7.5453980825841427e-03" rms="4.6795019507408142e-01" purity="6.6048908233642578e-01" nType="-99"/>
            <Node pos="r" depth="3" NCoef="0" IVar="-1" Cut="0.0000000000000000e+00" cType="1" res="1.6363169997930527e-03" rms="4.9751743674278259e-01" purity="5.2324873208999634e-01" nType="-99"/>
          </Node>
          <Node pos="r" depth="2" NCoef="0" IVar="5" Cut="2.0227489471435547e+00" cType="1" res="-5.3444635123014450e-02" rms="4.8173168301582336e-01" purity="4.1574257612228394e-01" nType="0">
            <Node pos="l" depth="3" NCoef="0" IVar="-1" Cut="0.0000000000000000e+00" cType="1" res="-2.3758900351822376e-03" rms="4.9155923724174500e-01" purity="4.8185846209526062e-01" nType="-99"/>
            <Node pos="r" depth="3" NCoef="0" IVar="-1" Cut="0.0000000000000000e+00" cType="1" res="-9.0420665219426155e-03" rms="4.6936336159706116e-01" purity="3.4787997603416443e-01" nType="-99"/>
          </Node>
        </Node>
        <Node pos="r" depth="1" NCoef="0" IVar="9" Cut="4.5451661944389343e-01" cType="1" res="-4.9550775438547134e-02" rms="4.7728565335273743e-01" purity="3.9946988224983215e-01" nType="0">
          <Node pos="l" depth="2" NCoef="0" IVar="0" Cut="6.6502937316894531e+01" cType="1" res="-1.2635397724807262e-02" rms="4.8946419358253479e-01" purity="4.6269294619560242e-01" nType="0">
            <Node pos="l" depth="3" NCoef="0" IVar="-1" Cut="0.0000000000000000e+00" cType="1" res="-3.0521007720381021e-03" rms="4.8762744665145874e-01" purity="4.1579630970954895e-01" nType="-99"/>
            <Node pos="r" depth="3" NCoef="0" IVar="-1" Cut="0.0000000000000000e+00" cType="1" res="3.2806580420583487e-03" rms="4.8999565839767456e-01" purity="5.5357098579406738e-01" nType="-99"/>
          </Node>
          <Node pos="r" depth="2" NCoef="0" IVar="9" Cut="9.0078550577163696e-01" cType="1" res="-1.0042694211006165e-01" rms="4.5509222149848938e-01" purity="3.1233695149421692e-01" nType="0">
            <Node pos="l" depth="3" NCoef="0" IVar="-1" Cut="0.0000000000000000e+00" cType="1" res="-6.9129592739045620e-03" rms="4.7280254960060120e-01" purity="3.5331341624259949e-01" nType="-99"/>
            <Node pos="r" depth="3" NCoef="0" IVar="-1" Cut="0.0000000000000000e+00" cType="1" res="-2.2215059027075768e-02" rms="3.9960145950317383e-01" purity="2.0108909904956818e-01" nType="-99"/>
          </Node>
        </Node>
      </Node>
    </BinaryTree>
    <BinaryTree type="DecisionTree" boostWeight="1.0000000000000000e+00" itree="28">
      <Node pos="s" depth="0" NCoef="0" IVar="6" Cut="1.6151725053787231e+00" cType="1" res="1.8417661776766181e-03" rms="4.8191702365875244e-01" purity="5.0223964452743530e-01" nType="0">
        <Node pos="l" depth="1" NCoef="0" IVar="2" Cut="1.9983580112457275e+00" cType="1" res="5.8589350432157516e-02" rms="4.6957871317863464e-01" purity="6.3938790559768677e-01" nType="0">
          <Node pos="l" depth="2" NCoef="0" IVar="9" Cut="2.7114564180374146e-01" cType="1" res="8.0650523304939270e-02" rms="4.6082860231399536e-01" purity="6.7110270261764526e-01" nType="0">
            <Node pos="l" depth="3" NCoef="0" IVar="-1" Cut="0.0000000000000000e+00" cType="1" res="1.0269931517541409e-02" rms="4.5208376646041870e-01" purity="7.0160520076751709e-01" nType="-99"/>
            <Node pos="r" depth="3" NCoef="0" IVar="-1" Cut="0.0000000000000000e+00" cType="1" res="1.6320066060870886e-03" rms="4.7968849539756775e-01" purity="5.8546185493469238e-01" nType="-99"/>
          </Node>
          <Node pos="r" depth="2" NCoef="0" IVar="-1" Cut="0.0000000000000000e+00" cType="1" res="-3.2198740518651903e-04" rms="4.8846456408500671e-01" purity="5.4748988151550293e-01" nType="-99"/>
        </Node>
        <Node pos="r" depth="1" NCoef="0" IVar="3" Cut="9.5545440673828125e+01" cType="1" res="-1.9345937296748161e-02" rms="4.8474326729774475e-01" purity="4.5103296637535095e-01" nType="0">
          <Node pos="l" depth="2" NCoef="0" IVar="3" Cut="8.6291061401367188e+01" cType="1" res="-8.9779812842607498e-03" rms="4.8595413565635681e-01" purity="4.6268269419670105e-01" nType="0">
            <Node pos="l" depth="3" NCoef="0" IVar="-1" Cut="0.0000000000000000e+00" cType="1" res="-6.3675325363874435e-03" rms="4.6738547086715698e-01" purity="3.5133638978004456e-01" nType="-99"/>
            <Node pos="r" depth="3" NCoef="0" IVar="-1" Cut="0.0000000000000000e+00" cType="1" res="2.7293383027426898e-04" rms="4.8677453398704529e-01" purity="4.7628670930862427e-01" nType="-99"/>
          </Node>
          <Node pos="r" depth="2" NCoef="0" IVar="-1" Cut="0.0000000000000000e+00" cType="1" res="-8.3817131817340851e-03" rms="4.5271816849708557e-01" purity="3.1382143497467041e-01" nType="-99"/>
        </Node>
      </Node>
    </BinaryTree>
    <BinaryTree type="DecisionTree" boostWeight="1.0000000000000000e+00" itree="29">
      <Node pos="s" depth="0" NCoef="0" IVar="1" Cut="2.1202967166900635e+00" cType="1" res="2.8280706610530615e-03" rms="4.8055613040924072e-01" purity="5.0402021408081055e-01" nType="0">
        <Node pos="l" depth="1" NCoef="0" IVar="9" Cut="-8.1805258989334106e-01" cType="1" res="2.1290726959705353e-02" rms="4.8278230428695679e-01" purity="5.4683703184127808e-01" nType="0">
          <Node pos="l" depth="2" NCoef="0" IVar="-1" Cut="0.0000000000000000e+00" cType="1" res="-6.6827191039919853e-03" rms="4.7424557805061340e-01" purity="3.6980706453323364e-01" nType="-99"/>
          <Node pos="r" depth="2" NCoef="0" IVar="6" Cut="1.6155911684036255e+00" cType="1" res="3.2988179475069046e-02" rms="4.8233401775360107e-01" purity="5.6676560640335083e-01" nType="0">
            <Node pos="l" depth="3" NCoef="0" IVar="-1" Cut="0.0000000000000000e+00" cType="1" res="5.6750429794192314e-03" rms="4.6110838651657104e-01" purity="6.7166185379028320e-01" nType="-99"/>
            <Node pos="r" depth="3" NCoef="0" IVar="-1" Cut="0.0000000000000000e+00" cType="1" res="1.0028999531641603e-03" rms="4.9139109253883362e-01" purity="5.1336681842803955e-01" nType="-99"/>
          </Node>
        </Node>
        <Node pos="r" depth="1" NCoef="0" IVar="9" Cut="2.7273091673851013e-01" cType="1" res="-6.7904599010944366e-02" rms="4.6519804000854492e-01" purity="3.3998382091522217e-01" nType="0">
          <Node pos="l" depth="2" NCoef="0" IVar="-1" Cut="0.0000000000000000e+00" cType="1" res="-2.3127575404942036e-03" rms="4.8493599891662598e-01" purity="4.0304183959960938e-01" nType="-99"/>
          <Node pos="r" depth="2" NCoef="0" IVar="9" Cut="7.3552483320236206e-01" cType="1" res="-9.3638874590396881e-02" rms="4.4956547021865845e-01" purity="2.9742687940597534e-01" nType="0">
            <Node pos="l" depth="3" NCoef="0" IVar="-1" Cut="0.0000000000000000e+00" cType="1" res="-3.5620387643575668e-03" rms="4.8279169201850891e-01" purity="3.7923917174339294e-01" nType="-99"/>
            <Node pos="r" depth="3" NCoef="0" IVar="-1" Cut="0.0000000000000000e+00" cType="1" res="-1.4387505128979683e-02" rms="4.1996338963508606e-01" purity="2.3333090543746948e-01" nType="-99"/>
          </Node>
        </Node>
      </Node>
    </BinaryTree>
    <BinaryTree type="DecisionTree" boostWeight="1.0000000000000000e+00" itree="30">
      <Node pos="s" depth="0" NCoef="0" IVar="1" Cut="2.0089418888092041e+00" cType="1" res="-8.3215010818094015e-04" rms="4.8040091991424561e-01" purity="4.9928876757621765e-01" nType="0">
        <Node pos="l" depth="1" NCoef="0" IVar="8" Cut="1.0675948858261108e+00" cType="1" res="2.1846540272235870e-02" rms="4.8326107859611511e-01" purity="5.5103236436843872e-01" nType="0">
          <Node pos="l" depth="2" NCoef="0" IVar="8" Cut="-1.4495071172714233e+00" cType="1" res="3.7887603044509888e-02" rms="4.8140126466751099e-01" purity="5.7769036293029785e-01" nType="0">
            <Node pos="l" depth="3" NCoef="0" IVar="-1" Cut="0.0000000000000000e+00" cType="1" res="-7.4758999980986118e-03" rms="4.8167976737022400e-01" purity="3.8823869824409485e-01" nType="-99"/>
            <Node pos="r" depth="3" NCoef="0" IVar="-1" Cut="0.0000000000000000e+00" cType="1" res="4.6678236685693264e-03" rms="4.7889494895935059e-01" purity="6.0903090238571167e-01" nType="-99"/>
          </Node>
          <Node pos="r" depth="2" NCoef="0" IVar="9" Cut="-6.3625437021255493e-01" cType="1" res="-5.0530582666397095e-02" rms="4.8501211404800415e-01" purity="4.3075194954872131e-01" nType="0">
            <Node pos="l" depth="3" NCoef="0" IVar="-1" Cut="0.0000000000000000e+00" cType="1" res="-5.5657448247075081e-03" rms="4.8120564222335815e-01" purity="3.7071979045867920e-01" nType="-99"/>
            <Node pos="r" depth="3" NCoef="0" IVar="-1" Cut="0.0000000000000000e+00" cType="1" res="-1.9136931514367461e-03" rms="4.8591679334640503e-01" purity="4.7140088677406311e-01" nType="-99"/>
          </Node>
        </Node>
        <Node pos="r" depth="1" NCoef="0" IVar="9" Cut="4.5454362034797668e-01" cType="1" res="-7.2276495397090912e-02" rms="4.6408787369728088e-01" purity="3.3628156781196594e-01" nType="0">
          <Node pos="l" depth="2" NCoef="0" IVar="1" Cut="2.4961822032928467e+00" cType="1" res="-3.6862969398498535e-02" rms="4.8655438423156738e-01" purity="4.0431448817253113e-01" nType="0">
            <Node pos="l" depth="3" NCoef="0" IVar="-1" Cut="0.0000000000000000e+00" cType="1" res="-1.7347713001072407e-03" rms="4.9110773205757141e-01" purity="4.3147662281990051e-01" nType="-99"/>
            <Node pos="r" depth="3" NCoef="0" IVar="-1" Cut="0.0000000000000000e+00" cType="1" res="-4.5138602145016193e-03" rms="4.7956034541130066e-01" purity="3.6873212456703186e-01" nType="-99"/>
          </Node>
          <Node pos="r" depth="2" NCoef="0" IVar="9" Cut="8.0175715684890747e-01" cType="1" res="-1.0502399504184723e-01" rms="4.3976777791976929e-01" purity="2.7337026596069336e-01" nType="0">
            <Node pos="l" depth="3" NCoef="0" IVar="-1" Cut="0.0000000000000000e+00" cType="1" res="-5.0742756575345993e-03" rms="4.7293198108673096e-01" purity="3.4393376111984253e-01" nType="-99"/>
            <Node pos="r" depth="3" NCoef="0" IVar="-1" Cut="0.0000000000000000e+00" cType="1" res="-7.2728497907519341e-03" rms="4.0839144587516785e-01" purity="2.1259143948554993e-01" nType="-99"/>
          </Node>
        </Node>
      </Node>
    </BinaryTree>
    <BinaryTree type="DecisionTree" boostWeight="1.0000000000000000e+00" itree="31">
      <Node pos="s" depth="0" NCoef="0" IVar="8" Cut="-2.3368005752563477e+00" cType="1" res="7.1605952689424157e-04" rms="4.8051449656486511e-01" purity="5.0181531906127930e-01" nType="0">
        <Node pos="l" depth="1" NCoef="0" IVar="-1" Cut="0.0000000000000000e+00" cType="1" res="-1.5133867971599102e-02" rms="4.1773039102554321e-01" purity="2.2982844710350037e-01" nType="-99"/>
        <Node pos="r" depth="1" NCoef="0" IVar="8" Cut="1.9571220874786377e+00" cType="1" res="1.0181333869695663e-02" rms="4.8244282603263855e-01" purity="5.1832240819931030e-01" nType="0">
          <Node pos="l" depth="2" NCoef="0" IVar="7" Cut="1.2000000000000000e+01" cType="1" res="2.2279651835560799e-02" rms="4.8262342810630798e-01" purity="5.3970015048980713e-01" nType="0">
            <Node pos="l" depth="3" NCoef="0" IVar="-1" Cut="0.0000000000000000e+00" cType="1" res="6.8514458835124969e-03" rms="4.7983196377754211e-01" purity="5.9056550264358521e-01" nType="-99"/>
            <Node pos="r" depth="3" NCoef="0" IVar="-1" Cut="0.0000000000000000e+00" cType="1" res="-1.5600792539771646e-04" rms="4.8482015728950500e-01" purity="5.1076292991638184e-01" nType="-99"/>
          </Node>
          <Node pos="r" depth="2" NCoef="0" IVar="-1" Cut="0.0000000000000000e+00" cType="1" res="-1.6206424683332443e-02" rms="4.4261652231216431e-01" purity="2.8089466691017151e-01" nType="-99"/>
        </Node>
      </Node>
    </BinaryTree>
    <BinaryTree type="DecisionTree" boostWeight="1.0000000000000000e+00" itree="32">
      <Node pos="s" depth="0" NCoef="0" IVar="1" Cut="1.3016489744186401e+00" cType="1" res="7.4129084168816917e-06" rms="4.8071023821830750e-01" purity="4.9995422363281250e-01" nType="0">
        <Node pos="l" depth="1" NCoef="0" IVar="5" Cut="1.5319737195968628e+00" cType="1" res="3.3461440354585648e-02" rms="4.7962012887001038e-01" purity="5.8140641450881958e-01" nType="0">
          <Node pos="l" depth="2" NCoef="0" IVar="8" Cut="-7.4737077951431274e-01" cType="1" res="5.1035918295383453e-02" rms="4.7742226719856262e-01" purity="6.2187623977661133e-01" nType="0">
            <Node pos="l" depth="3" NCoef="0" IVar="-1" Cut="0.0000000000000000e+00" cType="1" res="2.1851370547665283e-05" rms="4.9384158849716187e-01" purity="5.4618346691131592e-01" nType="-99"/>
            <Node pos="r" depth="3" NCoef="0" IVar="-1" Cut="0.0000000000000000e+00" cType="1" res="6.3465996645390987e-03" rms="4.7237187623977661e-01" purity="6.4080995321273804e-01" nType="-99"/>
          </Node>
          <Node pos="r" depth="2" NCoef="0" IVar="5" Cut="1.9035403728485107e+00" cType="1" res="-2.4148143827915192e-02" rms="4.8228541016578674e-01" purity="4.4874534010887146e-01" nType="0">
            <Node pos="l" depth="3" NCoef="0" IVar="-1" Cut="0.0000000000000000e+00" cType="1" res="1.8491925438866019e-03" rms="4.8767077922821045e-01" purity="5.3427177667617798e-01" nType="-99"/>
            <Node pos="r" depth="3" NCoef="0" IVar="-1" Cut="0.0000000000000000e+00" cType="1" res="-7.0742820389568806e-03" rms="4.7412616014480591e-01" purity="3.7030714750289917e-01" nType="-99"/>
          </Node>
        </Node>
        <Node pos="r" depth="1" NCoef="0" IVar="9" Cut="2.7273091673851013e-01" cType="1" res="-3.3625781536102295e-02" rms="4.7945642471313477e-01" purity="4.1806596517562866e-01" nType="0">
          <Node pos="l" depth="2" NCoef="0" IVar="9" Cut="-6.5286552906036377e-01" cType="1" res="-7.1580885560251772e-05" rms="4.8836952447891235e-01" purity="4.7786295413970947e-01" nType="0">
            <Node pos="l" depth="3" NCoef="0" IVar="-1" Cut="0.0000000000000000e+00" cType="1" res="-7.1290018968284130e-03" rms="4.7108393907546997e-01" purity="3.5385152697563171e-01" nType="-99"/>
            <Node pos="r" depth="3" NCoef="0" IVar="-1" Cut="0.0000000000000000e+00" cType="1" res="3.0857538804411888e-03" rms="4.9205324053764343e-01" purity="5.2255284786224365e-01" nType="-99"/>
          </Node>
          <Node pos="r" depth="2" NCoef="0" IVar="9" Cut="8.0163758993148804e-01" cType="1" res="-6.5435007214546204e-02" rms="4.6863797307014465e-01" purity="3.6137863993644714e-01" nType="0">
            <Node pos="l" depth="3" NCoef="0" IVar="-1" Cut="0.0000000000000000e+00" cType="1" res="-4.0959208272397518e-03" rms="4.8948037624359131e-01" purity="4.2928764224052429e-01" nType="-99"/>
            <Node pos="r" depth="3" NCoef="0" IVar="-1" Cut="0.0000000000000000e+00" cType="1" res="-3.6239274777472019e-03" rms="4.2779362201690674e-01" purity="2.4413236975669861e-01" nType="-99"/>
          </Node>
        </Node>
      </Node>
    </BinaryTree>
    <BinaryTree type="DecisionTree" boostWeight="1.0000000000000000e+00" itree="33">
      <Node pos="s" depth="0" NCoef="0" IVar="9" Cut="-8.1812411546707153e-01" cType="1" res="-2.5992374867200851e-03" rms="4.8054125905036926e-01" purity="4.9875125288963318e-01" nType="0">
        <Node pos="l" depth="1" NCoef="0" IVar="-1" Cut="0.0000000000000000e+00" cType="1" res="-8.0877626314759254e-03" rms="4.6651804447174072e-01" purity="3.4350034594535828e-01" nType="-99"/>
        <Node pos="r" depth="1" NCoef="0" IVar="9" Cut="3.3886733651161194e-01" cType="1" res="7.3266378603875637e-03" rms="4.8100012540817261e-01" purity="5.1564508676528931e-01" nType="0">
          <Node pos="l" depth="2" NCoef="0" IVar="0" Cut="9.7562454223632812e+01" cType="1" res="3.4999243915081024e-02" rms="4.8103561997413635e-01" purity="5.7364308834075928e-01" nType="0">
            <Node pos="l" depth="3" NCoef="0" IVar="-1" Cut="0.0000000000000000e+00" cType="1" res="8.1672461237758398e-04" rms="4.9300330877304077e-01" purity="5.1404833793640137e-01" nType="-99"/>
            <Node pos="r" depth="3" NCoef="0" IVar="-1" Cut="0.0000000000000000e+00" cType="1" res="7.3261098004877567e-03" rms="4.5572775602340698e-01" purity="6.7843228578567505e-01" nType="-99"/>
          </Node>
          <Node pos="r" depth="2" NCoef="0" IVar="5" Cut="5.8369398117065430e-01" cType="1" res="-4.1560307145118713e-02" rms="4.7703048586845398e-01" purity="4.1318455338478088e-01" nType="0">
            <Node pos="l" depth="3" NCoef="0" IVar="-1" Cut="0.0000000000000000e+00" cType="1" res="-1.0556251800153404e-04" rms="4.8507872223854065e-01" purity="4.9628278613090515e-01" nType="-99"/>
            <Node pos="r" depth="3" NCoef="0" IVar="-1" Cut="0.0000000000000000e+00" cType="1" res="-3.9859614335000515e-03" rms="4.6980601549148560e-01" purity="3.5884487628936768e-01" nType="-99"/>
          </Node>
        </Node>
      </Node>
    </BinaryTree>
    <BinaryTree type="DecisionTree" boostWeight="1.0000000000000000e+00" itree="34">
      <Node pos="s" depth="0" NCoef="0" IVar="8" Cut="-2.3930196762084961e+00" cType="1" res="-2.7945651672780514e-03" rms="4.8014906048774719e-01" purity="4.9852743744850159e-01" nType="0">
        <Node pos="l" depth="1" NCoef="0" IVar="-1" Cut="0.0000000000000000e+00" cType="1" res="-1.0700720362365246e-02" rms="4.3010288476943970e-01" purity="2.4373637139797211e-01" nType="-99"/>
        <Node pos="r" depth="1" NCoef="0" IVar="8" Cut="1.8652572631835938e+00" cType="1" res="5.0871954299509525e-03" rms="4.8185446858406067e-01" purity="5.1383447647094727e-01" nType="0">
          <Node pos="l" depth="2" NCoef="0" IVar="1" Cut="1.0647448301315308e+00" cType="1" res="1.8634997308254242e-02" rms="4.8399966955184937e-01" purity="5.3930670022964478e-01" nType="0">
            <Node pos="l" depth="3" NCoef="0" IVar="-1" Cut="0.0000000000000000e+00" cType="1" res="4.5019900426268578e-03" rms="4.7633099555969238e-01" purity="6.1627435684204102e-01" nType="-99"/>
            <Node pos="r" depth="3" NCoef="0" IVar="-1" Cut="0.0000000000000000e+00" cType="1" res="-5.5665976833552122e-04" rms="4.8853656649589539e-01" purity="4.7848689556121826e-01" nType="-99"/>
          </Node>
          <Node pos="r" depth="2" NCoef="0" IVar="-1" Cut="0.0000000000000000e+00" cType="1" res="-1.3951574452221394e-02" rms="4.4122260808944702e-01" purity="2.7400785684585571e-01" nType="-99"/>
        </Node>
      </Node>
    </BinaryTree>
    <BinaryTree type="DecisionTree" boostWeight="1.0000000000000000e+00" itree="35">
      <Node pos="s" depth="0" NCoef="0" IVar="8" Cut="-2.3930196762084961e+00" cType="1" res="3.0988722573965788e-03" rms="4.7896510362625122e-01" purity="5.0569701194763184e-01" nType="0">
        <Node pos="l" depth="1" NCoef="0" IVar="-1" Cut="0.0000000000000000e+00" cType="1" res="-1.7642198130488396e-02" rms="4.2146319150924683e-01" purity="2.3328366875648499e-01" nType="-99"/>
        <Node pos="r" depth="1" NCoef="0" IVar="8" Cut="1.8652572631835938e+00" cType="1" res="1.1325761675834656e-02" rms="4.8088976740837097e-01" purity="5.2179777622222900e-01" nType="0">
          <Node pos="l" depth="2" NCoef="0" IVar="7" Cut="1.2000000000000000e+01" cType="1" res="2.1327596157789230e-02" rms="4.7917440533638000e-01" purity="5.4366803169250488e-01" nType="0">
            <Node pos="l" depth="3" NCoef="0" IVar="-1" Cut="0.0000000000000000e+00" cType="1" res="5.8836471289396286e-03" rms="4.7876209020614624e-01" purity="5.8893674612045288e-01" nType="-99"/>
            <Node pos="r" depth="3" NCoef="0" IVar="-1" Cut="0.0000000000000000e+00" cType="1" res="7.5178766564931720e-05" rms="4.8438531160354614e-01" purity="5.1748418807983398e-01" nType="-99"/>
          </Node>
          <Node pos="r" depth="2" NCoef="0" IVar="-1" Cut="0.0000000000000000e+00" cType="1" res="-4.8745931126177311e-03" rms="4.4542708992958069e-01" purity="2.9604589939117432e-01" nType="-99"/>
        </Node>
      </Node>
    </BinaryTree>
    <BinaryTree type="DecisionTree" boostWeight="1.0000000000000000e+00" itree="36">
      <Node pos="s" depth="0" NCoef="0" IVar="8" Cut="-2.2195296287536621e+00" cType="1" res="2.8838987927883863e-03" rms="4.7957596182823181e-01" purity="5.0512224435806274e-01" nType="0">
        <Node pos="l" depth="1" NCoef="0" IVar="-1" Cut="0.0000000000000000e+00" cType="1" res="-1.2413735501468182e-02" rms="4.3116864562034607e-01" purity="2.5014138221740723e-01" nType="-99"/>
        <Node pos="r" depth="1" NCoef="0" IVar="8" Cut="2.1497659683227539e+00" cType="1" res="1.0699383914470673e-02" rms="4.8147851228713989e-01" purity="5.2153795957565308e-01" nType="0">
          <Node pos="l" depth="2" NCoef="0" IVar="3" Cut="9.5546630859375000e+01" cType="1" res="2.1059110760688782e-02" rms="4.8369187116622925e-01" purity="5.4247820377349854e-01" nType="0">
            <Node pos="l" depth="3" NCoef="0" IVar="-1" Cut="0.0000000000000000e+00" cType="1" res="2.6800255291163921e-03" rms="4.8301166296005249e-01" purity="5.5341923236846924e-01" nType="-99"/>
            <Node pos="r" depth="3" NCoef="0" IVar="-1" Cut="0.0000000000000000e+00" cType="1" res="-7.7790180221199989e-03" rms="4.7753870487213135e-01" purity="4.0316435694694519e-01" nType="-99"/>
          </Node>
          <Node pos="r" depth="2" NCoef="0" IVar="-1" Cut="0.0000000000000000e+00" cType="1" res="-6.2133437022566795e-03" rms="4.3117293715476990e-01" purity="2.5514394044876099e-01" nType="-99"/>
        </Node>
      </Node>
    </BinaryTree>
    <BinaryTree type="DecisionTree" boostWeight="1.0000000000000000e+00" itree="37">
      <Node pos="s" depth="0" NCoef="0" IVar="8" Cut="1.0369323492050171e+00" cType="1" res="-5.8974837884306908e-03" rms="4.7841566801071167e-01" purity="4.9583497643470764e-01" nType="0">
        <Node pos="l" depth="1" NCoef="0" IVar="8" Cut="-1.7235374450683594e+00" cType="1" res="1.0128678753972054e-02" rms="4.7954839468002319e-01" purity="5.2609044313430786e-01" nType="0">
          <Node pos="l" depth="2" NCoef="0" IVar="-1" Cut="0.0000000000000000e+00" cType="1" res="-8.6833480745553970e-03" rms="4.5105010271072388e-01" purity="3.0674943327903748e-01" nType="-99"/>
          <Node pos="r" depth="2" NCoef="0" IVar="3" Cut="8.6455589294433594e+01" cType="1" res="2.4785609915852547e-02" rms="4.8177063465118408e-01" purity="5.5781847238540649e-01" nType="0">
